<?xml version="1.0"?>
<opencv_storage>
<cascade>
  <stageType>BOOST</stageType>
  <featureType>HAAR</featureType>
  <height>32</height>
  <width>18</width>
  <stageParams>
    <boostType>GAB</boostType>
    <minHitRate>9.9500000476837158e-01</minHitRate>
    <maxFalseAlarm>5.0000000000000000e-01</maxFalseAlarm>
    <weightTrimRate>9.4999999999999996e-01</weightTrimRate>
    <maxDepth>1</maxDepth>
    <maxWeakCount>100</maxWeakCount></stageParams>
  <featureParams>
    <maxCatCount>0</maxCatCount>
    <featSize>1</featSize>
    <mode>BASIC</mode></featureParams>
  <stageNum>18</stageNum>
  <stages>
    <!-- stage 0 -->
    <_>
      <maxWeakCount>2</maxWeakCount>
      <stageThreshold>2.1235655993223190e-02</stageThreshold>
      <weakClassifiers>
        <_>
          <internalNodes>
            0 -1 70 1.8815287947654724e-01</internalNodes>
          <leafValues>
            -8.7878787517547607e-01 9.3034827709197998e-01</leafValues></_>
        <_>
          <internalNodes>
            0 -1 22 5.1034208387136459e-02</internalNodes>
          <leafValues>
            -9.0911263227462769e-01 9.0584981441497803e-01</leafValues></_></weakClassifiers></_>
    <!-- stage 1 -->
    <_>
      <maxWeakCount>2</maxWeakCount>
      <stageThreshold>-6.0577567666769028e-02</stageThreshold>
      <weakClassifiers>
        <_>
          <internalNodes>
            0 -1 120 -4.7414135187864304e-02</internalNodes>
          <leafValues>
            9.2127919197082520e-01 -9.0180879831314087e-01</leafValues></_>
        <_>
          <internalNodes>
            0 -1 61 3.2639217376708984e-01</internalNodes>
          <leafValues>
            -7.3253679275512695e-01 8.4123122692108154e-01</leafValues></_></weakClassifiers></_>
    <!-- stage 2 -->
    <_>
      <maxWeakCount>5</maxWeakCount>
      <stageThreshold>-9.5931816101074219e-01</stageThreshold>
      <weakClassifiers>
        <_>
          <internalNodes>
            0 -1 1 4.8894710838794708e-02</internalNodes>
          <leafValues>
            -8.2051283121109009e-01 7.3873871564865112e-01</leafValues></_>
        <_>
          <internalNodes>
            0 -1 130 -4.9335677176713943e-02</internalNodes>
          <leafValues>
            7.7886909246444702e-01 -5.8125007152557373e-01</leafValues></_>
        <_>
          <internalNodes>
            0 -1 70 3.3057194948196411e-01</internalNodes>
          <leafValues>
            -4.4674086570739746e-01 7.9575628042221069e-01</leafValues></_>
        <_>
          <internalNodes>
            0 -1 40 9.4417639076709747e-02</internalNodes>
          <leafValues>
            -7.9622757434844971e-01 4.1578066349029541e-01</leafValues></_>
        <_>
          <internalNodes>
            0 -1 55 9.8183453083038330e-03</internalNodes>
          <leafValues>
            -6.8013715744018555e-01 4.7340491414070129e-01</leafValues></_></weakClassifiers></_>
    <!-- stage 3 -->
    <_>
      <maxWeakCount>4</maxWeakCount>
      <stageThreshold>-1.0763947963714600e+00</stageThreshold>
      <weakClassifiers>
        <_>
          <internalNodes>
            0 -1 26 5.2553430199623108e-02</internalNodes>
          <leafValues>
            -5.4485774040222168e-01 8.7348586320877075e-01</leafValues></_>
        <_>
          <internalNodes>
            0 -1 140 -3.5907931625843048e-02</internalNodes>
          <leafValues>
            7.9364401102066040e-01 -6.2351799011230469e-01</leafValues></_>
        <_>
          <internalNodes>
            0 -1 117 -8.1996947526931763e-02</internalNodes>
          <leafValues>
            6.9880121946334839e-01 -4.0064820647239685e-01</leafValues></_>
        <_>
          <internalNodes>
            0 -1 4 2.6497650146484375e-01</internalNodes>
          <leafValues>
            -5.9920996427536011e-01 4.9262917041778564e-01</leafValues></_></weakClassifiers></_>
    <!-- stage 4 -->
    <_>
      <maxWeakCount>6</maxWeakCount>
      <stageThreshold>-8.8967263698577881e-01</stageThreshold>
      <weakClassifiers>
        <_>
          <internalNodes>
            0 -1 63 2.8672224283218384e-01</internalNodes>
          <leafValues>
            -6.0220992565155029e-01 7.3747014999389648e-01</leafValues></_>
        <_>
          <internalNodes>
            0 -1 16 3.1332951784133911e-01</internalNodes>
          <leafValues>
            -5.4916346073150635e-01 5.9484082460403442e-01</leafValues></_>
        <_>
          <internalNodes>
            0 -1 73 -1.6311635263264179e-03</internalNodes>
          <leafValues>
            5.4218512773513794e-01 -4.0108394622802734e-01</leafValues></_>
        <_>
          <internalNodes>
            0 -1 14 3.8932142779231071e-03</internalNodes>
          <leafValues>
            2.5866708159446716e-01 -8.8473916053771973e-01</leafValues></_>
        <_>
          <internalNodes>
            0 -1 94 1.0629552602767944e-01</internalNodes>
          <leafValues>
            -6.7936885356903076e-01 3.0488783121109009e-01</leafValues></_>
        <_>
          <internalNodes>
            0 -1 8 3.3570528030395508e-03</internalNodes>
          <leafValues>
            2.1555200219154358e-01 -8.4403932094573975e-01</leafValues></_></weakClassifiers></_>
    <!-- stage 5 -->
    <_>
      <maxWeakCount>7</maxWeakCount>
      <stageThreshold>-8.2825374603271484e-01</stageThreshold>
      <weakClassifiers>
        <_>
          <internalNodes>
            0 -1 28 -8.1962235271930695e-02</internalNodes>
          <leafValues>
            5.8704453706741333e-01 -8.4905660152435303e-01</leafValues></_>
        <_>
          <internalNodes>
            0 -1 34 9.3783989548683167e-02</internalNodes>
          <leafValues>
            -7.5081557035446167e-01 4.4820842146873474e-01</leafValues></_>
        <_>
          <internalNodes>
            0 -1 102 3.6593791097402573e-02</internalNodes>
          <leafValues>
            -5.3974276781082153e-01 5.2435439825057983e-01</leafValues></_>
        <_>
          <internalNodes>
            0 -1 33 3.4145332872867584e-02</internalNodes>
          <leafValues>
            -5.1595401763916016e-01 5.1997679471969604e-01</leafValues></_>
        <_>
          <internalNodes>
            0 -1 127 2.1596116945147514e-02</internalNodes>
          <leafValues>
            -6.3190317153930664e-01 3.4558612108230591e-01</leafValues></_>
        <_>
          <internalNodes>
            0 -1 164 2.4205015506595373e-03</internalNodes>
          <leafValues>
            2.2404740750789642e-01 -7.9399299621582031e-01</leafValues></_>
        <_>
          <internalNodes>
            0 -1 134 -8.9158769696950912e-04</internalNodes>
          <leafValues>
            -7.7905523777008057e-01 2.2175082564353943e-01</leafValues></_></weakClassifiers></_>
    <!-- stage 6 -->
    <_>
      <maxWeakCount>9</maxWeakCount>
      <stageThreshold>-1.0248148441314697e+00</stageThreshold>
      <weakClassifiers>
        <_>
          <internalNodes>
            0 -1 27 -2.5985375046730042e-02</internalNodes>
          <leafValues>
            5.8985203504562378e-01 -6.2204724550247192e-01</leafValues></_>
        <_>
          <internalNodes>
            0 -1 52 2.0731002092361450e-01</internalNodes>
          <leafValues>
            -5.8404600620269775e-01 4.9716761708259583e-01</leafValues></_>
        <_>
          <internalNodes>
            0 -1 15 3.6387676000595093e-01</internalNodes>
          <leafValues>
            -4.7059234976768494e-01 6.2461036443710327e-01</leafValues></_>
        <_>
          <internalNodes>
            0 -1 10 -1.5049050562083721e-03</internalNodes>
          <leafValues>
            -6.8480271100997925e-01 2.3732616007328033e-01</leafValues></_>
        <_>
          <internalNodes>
            0 -1 55 1.2081746011972427e-02</internalNodes>
          <leafValues>
            -5.9078949689865112e-01 2.9162171483039856e-01</leafValues></_>
        <_>
          <internalNodes>
            0 -1 143 2.0204145461320877e-02</internalNodes>
          <leafValues>
            -6.7178636789321899e-01 2.3571982979774475e-01</leafValues></_>
        <_>
          <internalNodes>
            0 -1 152 -6.4052292145788670e-05</internalNodes>
          <leafValues>
            2.7321547269821167e-01 -6.3651835918426514e-01</leafValues></_>
        <_>
          <internalNodes>
            0 -1 125 1.0021621361374855e-02</internalNodes>
          <leafValues>
            -8.8760405778884888e-01 1.1307611316442490e-01</leafValues></_>
        <_>
          <internalNodes>
            0 -1 11 -2.3284305352717638e-03</internalNodes>
          <leafValues>
            -6.9229418039321899e-01 2.1184296905994415e-01</leafValues></_></weakClassifiers></_>
    <!-- stage 7 -->
    <_>
      <maxWeakCount>9</maxWeakCount>
      <stageThreshold>-1.1674919128417969e+00</stageThreshold>
      <weakClassifiers>
        <_>
          <internalNodes>
            0 -1 7 3.3836013078689575e-01</internalNodes>
          <leafValues>
            -4.1424801945686340e-01 6.7844092845916748e-01</leafValues></_>
        <_>
          <internalNodes>
            0 -1 64 3.0205184221267700e-01</internalNodes>
          <leafValues>
            -6.4531773328781128e-01 4.5146274566650391e-01</leafValues></_>
        <_>
          <internalNodes>
            0 -1 54 4.2842756956815720e-02</internalNodes>
          <leafValues>
            -4.4639894366264343e-01 5.0409215688705444e-01</leafValues></_>
        <_>
          <internalNodes>
            0 -1 103 2.0507564768195152e-03</internalNodes>
          <leafValues>
            -3.3854284882545471e-01 6.1207425594329834e-01</leafValues></_>
        <_>
          <internalNodes>
            0 -1 122 9.3481997027993202e-03</internalNodes>
          <leafValues>
            -4.5642319321632385e-01 4.7005656361579895e-01</leafValues></_>
        <_>
          <internalNodes>
            0 -1 156 -4.0000546723604202e-03</internalNodes>
          <leafValues>
            -8.0413031578063965e-01 2.2950482368469238e-01</leafValues></_>
        <_>
          <internalNodes>
            0 -1 24 2.1191202104091644e-03</internalNodes>
          <leafValues>
            1.8481346964836121e-01 -8.7154710292816162e-01</leafValues></_>
        <_>
          <internalNodes>
            0 -1 68 1.2490257620811462e-02</internalNodes>
          <leafValues>
            -5.5886512994766235e-01 2.9572349786758423e-01</leafValues></_>
        <_>
          <internalNodes>
            0 -1 84 -2.0950112957507372e-03</internalNodes>
          <leafValues>
            -8.4116131067276001e-01 1.8120513856410980e-01</leafValues></_></weakClassifiers></_>
    <!-- stage 8 -->
    <_>
      <maxWeakCount>9</maxWeakCount>
      <stageThreshold>-1.1540148258209229e+00</stageThreshold>
      <weakClassifiers>
        <_>
          <internalNodes>
            0 -1 121 -9.2948406934738159e-02</internalNodes>
          <leafValues>
            6.1079865694046021e-01 -4.5980706810951233e-01</leafValues></_>
        <_>
          <internalNodes>
            0 -1 65 3.7557077407836914e-01</internalNodes>
          <leafValues>
            -3.7588757276535034e-01 5.5905455350875854e-01</leafValues></_>
        <_>
          <internalNodes>
            0 -1 36 9.3883443623781204e-03</internalNodes>
          <leafValues>
            -8.2364523410797119e-01 2.3015102744102478e-01</leafValues></_>
        <_>
          <internalNodes>
            0 -1 23 -3.0750446021556854e-03</internalNodes>
          <leafValues>
            -6.3026326894760132e-01 2.1428258717060089e-01</leafValues></_>
        <_>
          <internalNodes>
            0 -1 92 6.9224170874804258e-04</internalNodes>
          <leafValues>
            -6.4762312173843384e-01 2.2665742039680481e-01</leafValues></_>
        <_>
          <internalNodes>
            0 -1 146 1.3548076152801514e-02</internalNodes>
          <leafValues>
            -3.9538305997848511e-01 4.0942570567131042e-01</leafValues></_>
        <_>
          <internalNodes>
            0 -1 166 1.6157987993210554e-03</internalNodes>
          <leafValues>
            2.3829670250415802e-01 -6.6767364740371704e-01</leafValues></_>
        <_>
          <internalNodes>
            0 -1 99 -6.2298739794641733e-04</internalNodes>
          <leafValues>
            6.5273886919021606e-01 -3.5160896182060242e-01</leafValues></_>
        <_>
          <internalNodes>
            0 -1 21 1.4476513024419546e-03</internalNodes>
          <leafValues>
            2.9518714547157288e-01 -6.7098164558410645e-01</leafValues></_></weakClassifiers></_>
    <!-- stage 9 -->
    <_>
      <maxWeakCount>10</maxWeakCount>
      <stageThreshold>-1.0151032209396362e+00</stageThreshold>
      <weakClassifiers>
        <_>
          <internalNodes>
            0 -1 60 1.0581807047128677e-01</internalNodes>
          <leafValues>
            -6.0526317358016968e-01 5.5349797010421753e-01</leafValues></_>
        <_>
          <internalNodes>
            0 -1 6 1.2122683227062225e-01</internalNodes>
          <leafValues>
            -5.1363694667816162e-01 4.0544608235359192e-01</leafValues></_>
        <_>
          <internalNodes>
            0 -1 79 1.5910145640373230e-01</internalNodes>
          <leafValues>
            -4.1045835614204407e-01 4.4654282927513123e-01</leafValues></_>
        <_>
          <internalNodes>
            0 -1 12 -1.0611118341330439e-04</internalNodes>
          <leafValues>
            2.3765236139297485e-01 -6.9728279113769531e-01</leafValues></_>
        <_>
          <internalNodes>
            0 -1 138 -2.1964471787214279e-02</internalNodes>
          <leafValues>
            1.9639499485492706e-01 -6.9678151607513428e-01</leafValues></_>
        <_>
          <internalNodes>
            0 -1 80 -5.2272975153755397e-05</internalNodes>
          <leafValues>
            3.3628913760185242e-01 -4.3688666820526123e-01</leafValues></_>
        <_>
          <internalNodes>
            0 -1 72 -2.9074829816818237e-01</internalNodes>
          <leafValues>
            6.9496536254882812e-01 -2.0998568832874298e-01</leafValues></_>
        <_>
          <internalNodes>
            0 -1 25 -7.5324380304664373e-04</internalNodes>
          <leafValues>
            -7.3201137781143188e-01 1.7151060700416565e-01</leafValues></_>
        <_>
          <internalNodes>
            0 -1 17 2.2798660211265087e-03</internalNodes>
          <leafValues>
            1.7983457446098328e-01 -7.2775429487228394e-01</leafValues></_>
        <_>
          <internalNodes>
            0 -1 106 1.9865373615175486e-03</internalNodes>
          <leafValues>
            1.2456284463405609e-01 -8.1925791501998901e-01</leafValues></_></weakClassifiers></_>
    <!-- stage 10 -->
    <_>
      <maxWeakCount>12</maxWeakCount>
      <stageThreshold>-8.5732197761535645e-01</stageThreshold>
      <weakClassifiers>
        <_>
          <internalNodes>
            0 -1 76 5.2876924164593220e-03</internalNodes>
          <leafValues>
            -3.9636364579200745e-01 5.5027025938034058e-01</leafValues></_>
        <_>
          <internalNodes>
            0 -1 43 3.0043587088584900e-02</internalNodes>
          <leafValues>
            -5.0502783060073853e-01 3.1645441055297852e-01</leafValues></_>
        <_>
          <internalNodes>
            0 -1 111 1.6917567700147629e-02</internalNodes>
          <leafValues>
            -3.2861235737800598e-01 4.9964597821235657e-01</leafValues></_>
        <_>
          <internalNodes>
            0 -1 3 1.6785445809364319e-01</internalNodes>
          <leafValues>
            -4.8533654212951660e-01 3.2045710086822510e-01</leafValues></_>
        <_>
          <internalNodes>
            0 -1 142 -5.0831697881221771e-03</internalNodes>
          <leafValues>
            4.5234468579292297e-01 -2.8720134496688843e-01</leafValues></_>
        <_>
          <internalNodes>
            0 -1 39 2.6201987639069557e-03</internalNodes>
          <leafValues>
            2.2247728705406189e-01 -5.8240473270416260e-01</leafValues></_>
        <_>
          <internalNodes>
            0 -1 18 4.8045306466519833e-03</internalNodes>
          <leafValues>
            1.5191861987113953e-01 -8.2938069105148315e-01</leafValues></_>
        <_>
          <internalNodes>
            0 -1 128 1.8071202561259270e-02</internalNodes>
          <leafValues>
            -6.4751017093658447e-01 1.6768473386764526e-01</leafValues></_>
        <_>
          <internalNodes>
            0 -1 81 -2.3974498617462814e-04</internalNodes>
          <leafValues>
            3.3059239387512207e-01 -3.6553582549095154e-01</leafValues></_>
        <_>
          <internalNodes>
            0 -1 162 4.2648208327591419e-03</internalNodes>
          <leafValues>
            1.0691019147634506e-01 -8.1163829565048218e-01</leafValues></_>
        <_>
          <internalNodes>
            0 -1 148 4.2573045939207077e-03</internalNodes>
          <leafValues>
            1.1283413320779800e-01 -8.1320178508758545e-01</leafValues></_>
        <_>
          <internalNodes>
            0 -1 1 4.8588916659355164e-02</internalNodes>
          <leafValues>
            -6.9693845510482788e-01 1.4309255778789520e-01</leafValues></_></weakClassifiers></_>
    <!-- stage 11 -->
    <_>
      <maxWeakCount>12</maxWeakCount>
      <stageThreshold>-9.3782430887222290e-01</stageThreshold>
      <weakClassifiers>
        <_>
          <internalNodes>
            0 -1 119 1.8948836252093315e-02</internalNodes>
          <leafValues>
            -6.6666668653488159e-01 5.2380955219268799e-01</leafValues></_>
        <_>
          <internalNodes>
            0 -1 48 1.0728852450847626e-01</internalNodes>
          <leafValues>
            -4.0552797913551331e-01 4.3013498187065125e-01</leafValues></_>
        <_>
          <internalNodes>
            0 -1 113 2.8553958982229233e-03</internalNodes>
          <leafValues>
            1.9472907483577728e-01 -8.6308878660202026e-01</leafValues></_>
        <_>
          <internalNodes>
            0 -1 37 3.9767371490597725e-03</internalNodes>
          <leafValues>
            -5.2739834785461426e-01 2.0548032224178314e-01</leafValues></_>
        <_>
          <internalNodes>
            0 -1 96 3.0372265726327896e-02</internalNodes>
          <leafValues>
            -5.9384179115295410e-01 2.1233877539634705e-01</leafValues></_>
        <_>
          <internalNodes>
            0 -1 115 -3.4565958776511252e-04</internalNodes>
          <leafValues>
            -6.4868313074111938e-01 1.9552685320377350e-01</leafValues></_>
        <_>
          <internalNodes>
            0 -1 5 2.1426342427730560e-03</internalNodes>
          <leafValues>
            1.8505601584911346e-01 -6.4630919694900513e-01</leafValues></_>
        <_>
          <internalNodes>
            0 -1 74 -1.0089157149195671e-04</internalNodes>
          <leafValues>
            4.4357445836067200e-01 -3.0741292238235474e-01</leafValues></_>
        <_>
          <internalNodes>
            0 -1 89 -3.1092646531760693e-04</internalNodes>
          <leafValues>
            3.7489318847656250e-01 -3.3214813470840454e-01</leafValues></_>
        <_>
          <internalNodes>
            0 -1 160 1.6976725310087204e-03</internalNodes>
          <leafValues>
            1.9391219317913055e-01 -6.4764344692230225e-01</leafValues></_>
        <_>
          <internalNodes>
            0 -1 66 7.8654140233993530e-03</internalNodes>
          <leafValues>
            -6.1228120326995850e-01 1.8923121690750122e-01</leafValues></_>
        <_>
          <internalNodes>
            0 -1 161 -3.8077742792665958e-03</internalNodes>
          <leafValues>
            -7.3311048746109009e-01 1.3053558766841888e-01</leafValues></_></weakClassifiers></_>
    <!-- stage 12 -->
    <_>
      <maxWeakCount>12</maxWeakCount>
      <stageThreshold>-7.1590089797973633e-01</stageThreshold>
      <weakClassifiers>
        <_>
          <internalNodes>
            0 -1 105 -2.8911477420479059e-04</internalNodes>
          <leafValues>
            -4.9295774102210999e-01 5.1165145635604858e-01</leafValues></_>
        <_>
          <internalNodes>
            0 -1 158 -3.3361222594976425e-03</internalNodes>
          <leafValues>
            -6.4077180624008179e-01 2.6407390832901001e-01</leafValues></_>
        <_>
          <internalNodes>
            0 -1 90 2.6219664141535759e-03</internalNodes>
          <leafValues>
            -3.6619216203689575e-01 3.9620938897132874e-01</leafValues></_>
        <_>
          <internalNodes>
            0 -1 44 8.5185527801513672e-02</internalNodes>
          <leafValues>
            -3.9960104227066040e-01 3.7883347272872925e-01</leafValues></_>
        <_>
          <internalNodes>
            0 -1 29 -2.9794510919600725e-04</internalNodes>
          <leafValues>
            2.1244761347770691e-01 -5.6884390115737915e-01</leafValues></_>
        <_>
          <internalNodes>
            0 -1 112 2.5877621956169605e-03</internalNodes>
          <leafValues>
            -6.2370252609252930e-01 2.0871292054653168e-01</leafValues></_>
        <_>
          <internalNodes>
            0 -1 145 3.7824073806405067e-03</internalNodes>
          <leafValues>
            1.1059929430484772e-01 -9.0919035673141479e-01</leafValues></_>
        <_>
          <internalNodes>
            0 -1 144 6.8286106397863477e-05</internalNodes>
          <leafValues>
            -2.4892479181289673e-01 4.8423442244529724e-01</leafValues></_>
        <_>
          <internalNodes>
            0 -1 0 8.9403870515525341e-04</internalNodes>
          <leafValues>
            -4.1541129350662231e-01 2.8381365537643433e-01</leafValues></_>
        <_>
          <internalNodes>
            0 -1 118 3.1792156398296356e-02</internalNodes>
          <leafValues>
            -5.1925933361053467e-01 2.2307811677455902e-01</leafValues></_>
        <_>
          <internalNodes>
            0 -1 163 1.2188663240522146e-03</internalNodes>
          <leafValues>
            1.4536078274250031e-01 -6.6763883829116821e-01</leafValues></_>
        <_>
          <internalNodes>
            0 -1 124 -2.9832059226464480e-05</internalNodes>
          <leafValues>
            1.9330745935440063e-01 -5.1386725902557373e-01</leafValues></_></weakClassifiers></_>
    <!-- stage 13 -->
    <_>
      <maxWeakCount>12</maxWeakCount>
      <stageThreshold>-8.4374678134918213e-01</stageThreshold>
      <weakClassifiers>
        <_>
          <internalNodes>
            0 -1 98 1.4508962631225586e-02</internalNodes>
          <leafValues>
            -3.1320753693580627e-01 5.1657754182815552e-01</leafValues></_>
        <_>
          <internalNodes>
            0 -1 67 1.4652400277554989e-02</internalNodes>
          <leafValues>
            -3.1552863121032715e-01 4.1719746589660645e-01</leafValues></_>
        <_>
          <internalNodes>
            0 -1 91 3.9548501372337341e-03</internalNodes>
          <leafValues>
            1.5683488547801971e-01 -8.5226774215698242e-01</leafValues></_>
        <_>
          <internalNodes>
            0 -1 109 4.0327422320842743e-02</internalNodes>
          <leafValues>
            -3.0966588854789734e-01 4.5198342204093933e-01</leafValues></_>
        <_>
          <internalNodes>
            0 -1 2 7.0598162710666656e-02</internalNodes>
          <leafValues>
            -3.6381423473358154e-01 3.5415551066398621e-01</leafValues></_>
        <_>
          <internalNodes>
            0 -1 83 5.2919765003025532e-03</internalNodes>
          <leafValues>
            -3.9606481790542603e-01 2.8997683525085449e-01</leafValues></_>
        <_>
          <internalNodes>
            0 -1 53 8.0337682738900185e-03</internalNodes>
          <leafValues>
            -3.0808371305465698e-01 3.5146808624267578e-01</leafValues></_>
        <_>
          <internalNodes>
            0 -1 126 3.7555032758973539e-04</internalNodes>
          <leafValues>
            -5.0213557481765747e-01 2.1693183481693268e-01</leafValues></_>
        <_>
          <internalNodes>
            0 -1 30 4.9180360510945320e-03</internalNodes>
          <leafValues>
            1.4387951791286469e-01 -7.5905102491378784e-01</leafValues></_>
        <_>
          <internalNodes>
            0 -1 95 -1.5694920439273119e-03</internalNodes>
          <leafValues>
            6.2260639667510986e-01 -1.7907935380935669e-01</leafValues></_>
        <_>
          <internalNodes>
            0 -1 88 -3.1227937433868647e-03</internalNodes>
          <leafValues>
            5.0128674507141113e-01 -2.0521746575832367e-01</leafValues></_>
        <_>
          <internalNodes>
            0 -1 31 5.8748787268996239e-03</internalNodes>
          <leafValues>
            1.5690167248249054e-01 -8.4593528509140015e-01</leafValues></_></weakClassifiers></_>
    <!-- stage 14 -->
    <_>
      <maxWeakCount>15</maxWeakCount>
      <stageThreshold>-7.3890990018844604e-01</stageThreshold>
      <weakClassifiers>
        <_>
          <internalNodes>
            0 -1 75 -2.4002939462661743e-03</internalNodes>
          <leafValues>
            -5.8823531866073608e-01 4.5112782716751099e-01</leafValues></_>
        <_>
          <internalNodes>
            0 -1 137 6.5202107653021812e-03</internalNodes>
          <leafValues>
            -3.1354582309722900e-01 4.2219671607017517e-01</leafValues></_>
        <_>
          <internalNodes>
            0 -1 42 -1.0819016024470329e-03</internalNodes>
          <leafValues>
            2.8285938501358032e-01 -4.6240776777267456e-01</leafValues></_>
        <_>
          <internalNodes>
            0 -1 108 3.1436773133464158e-04</internalNodes>
          <leafValues>
            -3.9526048302650452e-01 2.5094637274742126e-01</leafValues></_>
        <_>
          <internalNodes>
            0 -1 104 2.5093383155763149e-03</internalNodes>
          <leafValues>
            -5.0349020957946777e-01 2.0498894155025482e-01</leafValues></_>
        <_>
          <internalNodes>
            0 -1 150 -5.3786183707416058e-04</internalNodes>
          <leafValues>
            -6.5627360343933105e-01 1.4143571257591248e-01</leafValues></_>
        <_>
          <internalNodes>
            0 -1 57 4.7340709716081619e-04</internalNodes>
          <leafValues>
            1.1508718878030777e-01 -7.6589959859848022e-01</leafValues></_>
        <_>
          <internalNodes>
            0 -1 131 1.5820828266441822e-03</internalNodes>
          <leafValues>
            -1.6363638639450073e-01 6.6401404142379761e-01</leafValues></_>
        <_>
          <internalNodes>
            0 -1 46 5.6819720193743706e-03</internalNodes>
          <leafValues>
            -2.6549085974693298e-01 3.8513419032096863e-01</leafValues></_>
        <_>
          <internalNodes>
            0 -1 51 7.2653576731681824e-02</internalNodes>
          <leafValues>
            -6.2882870435714722e-01 1.6436040401458740e-01</leafValues></_>
        <_>
          <internalNodes>
            0 -1 69 -2.0717578008770943e-03</internalNodes>
          <leafValues>
            4.4309872388839722e-01 -2.6734268665313721e-01</leafValues></_>
        <_>
          <internalNodes>
            0 -1 154 6.8080826895311475e-04</internalNodes>
          <leafValues>
            1.5337987244129181e-01 -6.6776847839355469e-01</leafValues></_>
        <_>
          <internalNodes>
            0 -1 123 -5.6190689792856574e-04</internalNodes>
          <leafValues>
            1.6386392712593079e-01 -5.4633843898773193e-01</leafValues></_>
        <_>
          <internalNodes>
            0 -1 116 -5.3172325715422630e-04</internalNodes>
          <leafValues>
            5.4458457231521606e-01 -1.7380356788635254e-01</leafValues></_>
        <_>
          <internalNodes>
            0 -1 155 4.5775445178151131e-03</internalNodes>
          <leafValues>
            1.9278208911418915e-01 -5.4457485675811768e-01</leafValues></_></weakClassifiers></_>
    <!-- stage 15 -->
    <_>
      <maxWeakCount>13</maxWeakCount>
      <stageThreshold>-6.1116260290145874e-01</stageThreshold>
      <weakClassifiers>
        <_>
          <internalNodes>
            0 -1 58 2.2938510775566101e-01</internalNodes>
          <leafValues>
            -3.5338345170021057e-01 5.2890789508819580e-01</leafValues></_>
        <_>
          <internalNodes>
            0 -1 62 4.0507614612579346e-03</internalNodes>
          <leafValues>
            2.8624895215034485e-01 -5.1242953538894653e-01</leafValues></_>
        <_>
          <internalNodes>
            0 -1 153 -4.4862536014989018e-04</internalNodes>
          <leafValues>
            2.3329976201057434e-01 -5.5445122718811035e-01</leafValues></_>
        <_>
          <internalNodes>
            0 -1 47 -1.1203412432223558e-03</internalNodes>
          <leafValues>
            1.5907473862171173e-01 -6.8559139966964722e-01</leafValues></_>
        <_>
          <internalNodes>
            0 -1 139 3.3659865148365498e-03</internalNodes>
          <leafValues>
            -4.9423721432685852e-01 2.1307572722434998e-01</leafValues></_>
        <_>
          <internalNodes>
            0 -1 38 1.4387646224349737e-03</internalNodes>
          <leafValues>
            1.8866261839866638e-01 -4.9462574720382690e-01</leafValues></_>
        <_>
          <internalNodes>
            0 -1 110 4.6963995555415750e-04</internalNodes>
          <leafValues>
            -2.9819601774215698e-01 3.1942835450172424e-01</leafValues></_>
        <_>
          <internalNodes>
            0 -1 135 -2.9048085212707520e-02</internalNodes>
          <leafValues>
            2.6453506946563721e-01 -3.7338435649871826e-01</leafValues></_>
        <_>
          <internalNodes>
            0 -1 49 5.4381033405661583e-03</internalNodes>
          <leafValues>
            1.8218742311000824e-01 -6.3713175058364868e-01</leafValues></_>
        <_>
          <internalNodes>
            0 -1 107 6.4991623163223267e-02</internalNodes>
          <leafValues>
            8.6017929017543793e-02 -8.6707764863967896e-01</leafValues></_>
        <_>
          <internalNodes>
            0 -1 35 1.0495705064386129e-03</internalNodes>
          <leafValues>
            1.0861401259899139e-01 -8.1615340709686279e-01</leafValues></_>
        <_>
          <internalNodes>
            0 -1 78 1.2882666196674109e-03</internalNodes>
          <leafValues>
            -2.4589951336383820e-01 4.7401630878448486e-01</leafValues></_>
        <_>
          <internalNodes>
            0 -1 149 1.5071844682097435e-03</internalNodes>
          <leafValues>
            1.5102960169315338e-01 -6.5269577503204346e-01</leafValues></_></weakClassifiers></_>
    <!-- stage 16 -->
    <_>
      <maxWeakCount>16</maxWeakCount>
      <stageThreshold>-7.7369415760040283e-01</stageThreshold>
      <weakClassifiers>
        <_>
          <internalNodes>
            0 -1 56 -3.4616117773111910e-05</internalNodes>
          <leafValues>
            4.6332046389579773e-01 -4.8780488967895508e-01</leafValues></_>
        <_>
          <internalNodes>
            0 -1 101 2.0531541667878628e-03</internalNodes>
          <leafValues>
            -4.9701401591300964e-01 2.5294533371925354e-01</leafValues></_>
        <_>
          <internalNodes>
            0 -1 141 1.5909875510260463e-03</internalNodes>
          <leafValues>
            -3.2461377978324890e-01 3.0363270640373230e-01</leafValues></_>
        <_>
          <internalNodes>
            0 -1 9 1.8735381308943033e-03</internalNodes>
          <leafValues>
            1.8928918242454529e-01 -5.8916848897933960e-01</leafValues></_>
        <_>
          <internalNodes>
            0 -1 41 1.2213946133852005e-01</internalNodes>
          <leafValues>
            -7.6211243867874146e-01 1.1756057292222977e-01</leafValues></_>
        <_>
          <internalNodes>
            0 -1 93 -1.7082527279853821e-02</internalNodes>
          <leafValues>
            2.9209780693054199e-01 -3.6965444684028625e-01</leafValues></_>
        <_>
          <internalNodes>
            0 -1 82 -1.8669341225177050e-03</internalNodes>
          <leafValues>
            -6.3585537672042847e-01 1.4699944853782654e-01</leafValues></_>
        <_>
          <internalNodes>
            0 -1 86 -2.2131020668894053e-03</internalNodes>
          <leafValues>
            6.2179028987884521e-01 -1.6103109717369080e-01</leafValues></_>
        <_>
          <internalNodes>
            0 -1 77 7.8470893204212189e-03</internalNodes>
          <leafValues>
            -2.0206214487552643e-01 6.9726550579071045e-01</leafValues></_>
        <_>
          <internalNodes>
            0 -1 157 4.1547026485204697e-03</internalNodes>
          <leafValues>
            1.6856808960437775e-01 -7.0052063465118408e-01</leafValues></_>
        <_>
          <internalNodes>
            0 -1 147 5.8878790587186813e-03</internalNodes>
          <leafValues>
            -3.1159353256225586e-01 2.9450297355651855e-01</leafValues></_>
        <_>
          <internalNodes>
            0 -1 159 -3.5045080585405231e-04</internalNodes>
          <leafValues>
            2.5281715393066406e-01 -4.3091729283332825e-01</leafValues></_>
        <_>
          <internalNodes>
            0 -1 19 2.5699003599584103e-03</internalNodes>
          <leafValues>
            1.0637154430150986e-01 -8.2683199644088745e-01</leafValues></_>
        <_>
          <internalNodes>
            0 -1 165 -1.2617142871022224e-02</internalNodes>
          <leafValues>
            -6.6416907310485840e-01 1.1795277893543243e-01</leafValues></_>
        <_>
          <internalNodes>
            0 -1 71 -1.6729431226849556e-02</internalNodes>
          <leafValues>
            -7.6733261346817017e-01 1.0470558702945709e-01</leafValues></_>
        <_>
          <internalNodes>
            0 -1 45 1.4383346773684025e-02</internalNodes>
          <leafValues>
            -2.0829895138740540e-01 4.3823727965354919e-01</leafValues></_></weakClassifiers></_>
    <!-- stage 17 -->
    <_>
      <maxWeakCount>15</maxWeakCount>
      <stageThreshold>-8.5274797677993774e-01</stageThreshold>
      <weakClassifiers>
        <_>
          <internalNodes>
            0 -1 114 -2.5359995197504759e-04</internalNodes>
          <leafValues>
            -4.0782123804092407e-01 4.6327129006385803e-01</leafValues></_>
        <_>
          <internalNodes>
            0 -1 136 -1.4323554933071136e-02</internalNodes>
          <leafValues>
            3.6348342895507812e-01 -2.7452418208122253e-01</leafValues></_>
        <_>
          <internalNodes>
            0 -1 132 7.9850964248180389e-03</internalNodes>
          <leafValues>
            -1.9096711277961731e-01 5.8880776166915894e-01</leafValues></_>
        <_>
          <internalNodes>
            0 -1 129 9.2630951257888228e-05</internalNodes>
          <leafValues>
            3.9802429080009460e-01 -2.8914046287536621e-01</leafValues></_>
        <_>
          <internalNodes>
            0 -1 59 2.6574891805648804e-01</internalNodes>
          <leafValues>
            -3.1425780057907104e-01 4.8097091913223267e-01</leafValues></_>
        <_>
          <internalNodes>
            0 -1 87 -1.0524480603635311e-03</internalNodes>
          <leafValues>
            5.4539406299591064e-01 -2.1801811456680298e-01</leafValues></_>
        <_>
          <internalNodes>
            0 -1 20 -1.2413908261805773e-03</internalNodes>
          <leafValues>
            2.9175865650177002e-01 -4.2415565252304077e-01</leafValues></_>
        <_>
          <internalNodes>
            0 -1 133 9.6268771449103951e-04</internalNodes>
          <leafValues>
            1.0628685355186462e-01 -8.0995166301727295e-01</leafValues></_>
        <_>
          <internalNodes>
            0 -1 85 3.5305350320413709e-04</internalNodes>
          <leafValues>
            -2.8311398625373840e-01 3.4277901053428650e-01</leafValues></_>
        <_>
          <internalNodes>
            0 -1 151 -2.0256342831999063e-03</internalNodes>
          <leafValues>
            -8.0451494455337524e-01 1.4947971701622009e-01</leafValues></_>
        <_>
          <internalNodes>
            0 -1 50 7.1893110871315002e-03</internalNodes>
          <leafValues>
            -3.2376804947853088e-01 3.5304948687553406e-01</leafValues></_>
        <_>
          <internalNodes>
            0 -1 100 -1.6155543271452188e-03</internalNodes>
          <leafValues>
            4.2866820096969604e-01 -2.3095218837261200e-01</leafValues></_>
        <_>
          <internalNodes>
            0 -1 13 2.8519243933260441e-03</internalNodes>
          <leafValues>
            1.9480688869953156e-01 -5.6747764348983765e-01</leafValues></_>
        <_>
          <internalNodes>
            0 -1 97 8.9479252696037292e-02</internalNodes>
          <leafValues>
            1.1079470068216324e-01 -6.9614577293395996e-01</leafValues></_>
        <_>
          <internalNodes>
            0 -1 32 -2.4706972762942314e-03</internalNodes>
          <leafValues>
            -6.7514228820800781e-01 1.4152733981609344e-01</leafValues></_></weakClassifiers></_></stages>
  <features>
    <_>
      <rects>
        <_>
          0 0 8 5 -1.</_>
        <_>
          4 0 4 5 2.</_></rects>
      <tilted>0</tilted></_>
    <_>
      <rects>
        <_>
          0 0 8 26 -1.</_>
        <_>
          0 0 4 13 2.</_>
        <_>
          4 13 4 13 2.</_></rects>
      <tilted>0</tilted></_>
    <_>
      <rects>
        <_>
          0 0 15 18 -1.</_>
        <_>
          5 0 5 18 3.</_></rects>
      <tilted>0</tilted></_>
    <_>
      <rects>
        <_>
          0 0 10 25 -1.</_>
        <_>
          5 0 5 25 2.</_></rects>
      <tilted>0</tilted></_>
    <_>
      <rects>
        <_>
          0 0 18 28 -1.</_>
        <_>
          6 0 6 28 3.</_></rects>
      <tilted>0</tilted></_>
    <_>
      <rects>
        <_>
          0 2 2 28 -1.</_>
        <_>
          0 2 1 14 2.</_>
        <_>
          1 16 1 14 2.</_></rects>
      <tilted>0</tilted></_>
    <_>
      <rects>
        <_>
          0 2 8 26 -1.</_>
        <_>
          4 2 4 26 2.</_></rects>
      <tilted>0</tilted></_>
    <_>
      <rects>
        <_>
          0 3 18 28 -1.</_>
        <_>
          6 3 6 28 3.</_></rects>
      <tilted>0</tilted></_>
    <_>
      <rects>
        <_>
          0 4 2 24 -1.</_>
        <_>
          0 4 1 12 2.</_>
        <_>
          1 16 1 12 2.</_></rects>
      <tilted>0</tilted></_>
    <_>
      <rects>
        <_>
          0 6 1 20 -1.</_>
        <_>
          0 16 1 10 2.</_></rects>
      <tilted>0</tilted></_>
    <_>
      <rects>
        <_>
          0 6 4 12 -1.</_>
        <_>
          2 6 2 12 2.</_></rects>
      <tilted>0</tilted></_>
    <_>
      <rects>
        <_>
          0 8 1 12 -1.</_>
        <_>
          0 12 1 4 3.</_></rects>
      <tilted>0</tilted></_>
    <_>
      <rects>
        <_>
          0 8 3 24 -1.</_>
        <_>
          0 20 3 12 2.</_></rects>
      <tilted>0</tilted></_>
    <_>
      <rects>
        <_>
          0 9 1 12 -1.</_>
        <_>
          0 13 1 4 3.</_></rects>
      <tilted>0</tilted></_>
    <_>
      <rects>
        <_>
          0 10 1 22 -1.</_>
        <_>
          0 21 1 11 2.</_></rects>
      <tilted>0</tilted></_>
    <_>
      <rects>
        <_>
          0 10 15 21 -1.</_>
        <_>
          0 17 15 7 3.</_></rects>
      <tilted>0</tilted></_>
    <_>
      <rects>
        <_>
          0 11 18 17 -1.</_>
        <_>
          6 11 6 17 3.</_></rects>
      <tilted>0</tilted></_>
    <_>
      <rects>
        <_>
          0 12 2 9 -1.</_>
        <_>
          1 12 1 9 2.</_></rects>
      <tilted>0</tilted></_>
    <_>
      <rects>
        <_>
          0 13 2 10 -1.</_>
        <_>
          0 18 2 5 2.</_></rects>
      <tilted>0</tilted></_>
    <_>
      <rects>
        <_>
          0 14 2 13 -1.</_>
        <_>
          1 14 1 13 2.</_></rects>
      <tilted>0</tilted></_>
    <_>
      <rects>
        <_>
          0 14 2 16 -1.</_>
        <_>
          0 22 2 8 2.</_></rects>
      <tilted>0</tilted></_>
    <_>
      <rects>
        <_>
          0 15 2 10 -1.</_>
        <_>
          1 15 1 10 2.</_></rects>
      <tilted>0</tilted></_>
    <_>
      <rects>
        <_>
          0 15 8 9 -1.</_>
        <_>
          4 15 4 9 2.</_></rects>
      <tilted>0</tilted></_>
    <_>
      <rects>
        <_>
          0 16 1 15 -1.</_>
        <_>
          0 21 1 5 3.</_></rects>
      <tilted>0</tilted></_>
    <_>
      <rects>
        <_>
          0 16 2 8 -1.</_>
        <_>
          0 20 2 4 2.</_></rects>
      <tilted>0</tilted></_>
    <_>
      <rects>
        <_>
          0 17 2 2 -1.</_>
        <_>
          1 17 1 2 2.</_></rects>
      <tilted>0</tilted></_>
    <_>
      <rects>
        <_>
          0 18 8 5 -1.</_>
        <_>
          4 18 4 5 2.</_></rects>
      <tilted>0</tilted></_>
    <_>
      <rects>
        <_>
          0 20 8 12 -1.</_>
        <_>
          0 20 4 6 2.</_>
        <_>
          4 26 4 6 2.</_></rects>
      <tilted>0</tilted></_>
    <_>
      <rects>
        <_>
          0 20 15 12 -1.</_>
        <_>
          0 26 15 6 2.</_></rects>
      <tilted>0</tilted></_>
    <_>
      <rects>
        <_>
          0 23 7 2 -1.</_>
        <_>
          0 24 7 1 2.</_></rects>
      <tilted>0</tilted></_>
    <_>
      <rects>
        <_>
          0 26 4 6 -1.</_>
        <_>
          2 26 2 6 2.</_></rects>
      <tilted>0</tilted></_>
    <_>
      <rects>
        <_>
          0 28 9 4 -1.</_>
        <_>
          0 30 9 2 2.</_></rects>
      <tilted>0</tilted></_>
    <_>
      <rects>
        <_>
          1 0 2 16 -1.</_>
        <_>
          2 0 1 16 2.</_></rects>
      <tilted>0</tilted></_>
    <_>
      <rects>
        <_>
          1 10 6 12 -1.</_>
        <_>
          1 10 3 6 2.</_>
        <_>
          4 16 3 6 2.</_></rects>
      <tilted>0</tilted></_>
    <_>
      <rects>
        <_>
          1 10 8 18 -1.</_>
        <_>
          5 10 4 18 2.</_></rects>
      <tilted>0</tilted></_>
    <_>
      <rects>
        <_>
          1 15 1 4 -1.</_>
        <_>
          1 17 1 2 2.</_></rects>
      <tilted>0</tilted></_>
    <_>
      <rects>
        <_>
          1 15 6 5 -1.</_>
        <_>
          4 15 3 5 2.</_></rects>
      <tilted>0</tilted></_>
    <_>
      <rects>
        <_>
          1 16 6 6 -1.</_>
        <_>
          1 18 6 2 3.</_></rects>
      <tilted>0</tilted></_>
    <_>
      <rects>
        <_>
          1 18 2 8 -1.</_>
        <_>
          2 18 1 8 2.</_></rects>
      <tilted>0</tilted></_>
    <_>
      <rects>
        <_>
          1 31 12 1 -1.</_>
        <_>
          7 31 6 1 2.</_></rects>
      <tilted>0</tilted></_>
    <_>
      <rects>
        <_>
          2 3 15 27 -1.</_>
        <_>
          7 3 5 27 3.</_></rects>
      <tilted>0</tilted></_>
    <_>
      <rects>
        <_>
          2 6 14 16 -1.</_>
        <_>
          2 14 14 8 2.</_></rects>
      <tilted>0</tilted></_>
    <_>
      <rects>
        <_>
          2 10 4 9 -1.</_>
        <_>
          2 13 4 3 3.</_></rects>
      <tilted>0</tilted></_>
    <_>
      <rects>
        <_>
          2 14 5 12 -1.</_>
        <_>
          2 18 5 4 3.</_></rects>
      <tilted>0</tilted></_>
    <_>
      <rects>
        <_>
          2 15 6 13 -1.</_>
        <_>
          5 15 3 13 2.</_></rects>
      <tilted>0</tilted></_>
    <_>
      <rects>
        <_>
          2 18 6 2 -1.</_>
        <_>
          4 18 2 2 3.</_></rects>
      <tilted>0</tilted></_>
    <_>
      <rects>
        <_>
          2 19 6 1 -1.</_>
        <_>
          4 19 2 1 3.</_></rects>
      <tilted>0</tilted></_>
    <_>
      <rects>
        <_>
          2 20 4 4 -1.</_>
        <_>
          2 22 4 2 2.</_></rects>
      <tilted>0</tilted></_>
    <_>
      <rects>
        <_>
          2 21 15 5 -1.</_>
        <_>
          7 21 5 5 3.</_></rects>
      <tilted>0</tilted></_>
    <_>
      <rects>
        <_>
          2 31 15 1 -1.</_>
        <_>
          7 31 5 1 3.</_></rects>
      <tilted>0</tilted></_>
    <_>
      <rects>
        <_>
          3 0 12 5 -1.</_>
        <_>
          7 0 4 5 3.</_></rects>
      <tilted>0</tilted></_>
    <_>
      <rects>
        <_>
          3 0 12 30 -1.</_>
        <_>
          7 0 4 30 3.</_></rects>
      <tilted>0</tilted></_>
    <_>
      <rects>
        <_>
          3 0 15 28 -1.</_>
        <_>
          8 0 5 28 3.</_></rects>
      <tilted>0</tilted></_>
    <_>
      <rects>
        <_>
          3 13 4 6 -1.</_>
        <_>
          3 13 2 3 2.</_>
        <_>
          5 16 2 3 2.</_></rects>
      <tilted>0</tilted></_>
    <_>
      <rects>
        <_>
          3 13 4 18 -1.</_>
        <_>
          5 13 2 18 2.</_></rects>
      <tilted>0</tilted></_>
    <_>
      <rects>
        <_>
          3 15 4 9 -1.</_>
        <_>
          3 18 4 3 3.</_></rects>
      <tilted>0</tilted></_>
    <_>
      <rects>
        <_>
          3 22 4 2 -1.</_>
        <_>
          3 23 4 1 2.</_></rects>
      <tilted>0</tilted></_>
    <_>
      <rects>
        <_>
          3 24 4 2 -1.</_>
        <_>
          3 25 4 1 2.</_></rects>
      <tilted>0</tilted></_>
    <_>
      <rects>
        <_>
          4 1 11 24 -1.</_>
        <_>
          4 13 11 12 2.</_></rects>
      <tilted>0</tilted></_>
    <_>
      <rects>
        <_>
          4 6 9 20 -1.</_>
        <_>
          4 16 9 10 2.</_></rects>
      <tilted>0</tilted></_>
    <_>
      <rects>
        <_>
          4 7 12 14 -1.</_>
        <_>
          4 14 12 7 2.</_></rects>
      <tilted>0</tilted></_>
    <_>
      <rects>
        <_>
          4 8 11 24 -1.</_>
        <_>
          4 16 11 8 3.</_></rects>
      <tilted>0</tilted></_>
    <_>
      <rects>
        <_>
          4 9 10 4 -1.</_>
        <_>
          4 11 10 2 2.</_></rects>
      <tilted>0</tilted></_>
    <_>
      <rects>
        <_>
          4 10 11 21 -1.</_>
        <_>
          4 17 11 7 3.</_></rects>
      <tilted>0</tilted></_>
    <_>
      <rects>
        <_>
          4 10 14 21 -1.</_>
        <_>
          4 17 14 7 3.</_></rects>
      <tilted>0</tilted></_>
    <_>
      <rects>
        <_>
          4 11 11 21 -1.</_>
        <_>
          4 18 11 7 3.</_></rects>
      <tilted>0</tilted></_>
    <_>
      <rects>
        <_>
          4 12 12 6 -1.</_>
        <_>
          8 12 4 6 3.</_></rects>
      <tilted>0</tilted></_>
    <_>
      <rects>
        <_>
          4 15 2 9 -1.</_>
        <_>
          4 18 2 3 3.</_></rects>
      <tilted>0</tilted></_>
    <_>
      <rects>
        <_>
          4 15 3 9 -1.</_>
        <_>
          4 18 3 3 3.</_></rects>
      <tilted>0</tilted></_>
    <_>
      <rects>
        <_>
          5 5 9 2 -1.</_>
        <_>
          8 5 3 2 3.</_></rects>
      <tilted>0</tilted></_>
    <_>
      <rects>
        <_>
          5 10 10 21 -1.</_>
        <_>
          5 17 10 7 3.</_></rects>
      <tilted>0</tilted></_>
    <_>
      <rects>
        <_>
          5 13 8 5 -1.</_>
        <_>
          9 13 4 5 2.</_></rects>
      <tilted>0</tilted></_>
    <_>
      <rects>
        <_>
          5 16 9 16 -1.</_>
        <_>
          5 24 9 8 2.</_></rects>
      <tilted>0</tilted></_>
    <_>
      <rects>
        <_>
          5 18 9 1 -1.</_>
        <_>
          8 18 3 1 3.</_></rects>
      <tilted>0</tilted></_>
    <_>
      <rects>
        <_>
          5 19 2 2 -1.</_>
        <_>
          6 19 1 2 2.</_></rects>
      <tilted>0</tilted></_>
    <_>
      <rects>
        <_>
          5 20 3 10 -1.</_>
        <_>
          6 20 1 10 3.</_></rects>
      <tilted>0</tilted></_>
    <_>
      <rects>
        <_>
          5 23 9 8 -1.</_>
        <_>
          8 23 3 8 3.</_></rects>
      <tilted>0</tilted></_>
    <_>
      <rects>
        <_>
          6 0 3 6 -1.</_>
        <_>
          6 2 3 2 3.</_></rects>
      <tilted>0</tilted></_>
    <_>
      <rects>
        <_>
          6 0 5 2 -1.</_>
        <_>
          6 1 5 1 2.</_></rects>
      <tilted>0</tilted></_>
    <_>
      <rects>
        <_>
          6 14 8 18 -1.</_>
        <_>
          6 20 8 6 3.</_></rects>
      <tilted>0</tilted></_>
    <_>
      <rects>
        <_>
          6 18 2 1 -1.</_>
        <_>
          7 18 1 1 2.</_></rects>
      <tilted>0</tilted></_>
    <_>
      <rects>
        <_>
          6 19 4 1 -1.</_>
        <_>
          8 19 2 1 2.</_></rects>
      <tilted>0</tilted></_>
    <_>
      <rects>
        <_>
          6 20 3 12 -1.</_>
        <_>
          7 20 1 12 3.</_></rects>
      <tilted>0</tilted></_>
    <_>
      <rects>
        <_>
          6 22 6 9 -1.</_>
        <_>
          8 22 2 9 3.</_></rects>
      <tilted>0</tilted></_>
    <_>
      <rects>
        <_>
          6 25 3 6 -1.</_>
        <_>
          7 25 1 6 3.</_></rects>
      <tilted>0</tilted></_>
    <_>
      <rects>
        <_>
          6 27 3 4 -1.</_>
        <_>
          7 27 1 4 3.</_></rects>
      <tilted>0</tilted></_>
    <_>
      <rects>
        <_>
          7 0 1 6 -1.</_>
        <_>
          7 2 1 2 3.</_></rects>
      <tilted>0</tilted></_>
    <_>
      <rects>
        <_>
          7 16 5 2 -1.</_>
        <_>
          7 17 5 1 2.</_></rects>
      <tilted>0</tilted></_>
    <_>
      <rects>
        <_>
          7 16 6 6 -1.</_>
        <_>
          7 18 6 2 3.</_></rects>
      <tilted>0</tilted></_>
    <_>
      <rects>
        <_>
          7 17 2 2 -1.</_>
        <_>
          8 17 1 2 2.</_></rects>
      <tilted>0</tilted></_>
    <_>
      <rects>
        <_>
          7 18 4 4 -1.</_>
        <_>
          7 20 4 2 2.</_></rects>
      <tilted>0</tilted></_>
    <_>
      <rects>
        <_>
          7 21 3 5 -1.</_>
        <_>
          8 21 1 5 3.</_></rects>
      <tilted>0</tilted></_>
    <_>
      <rects>
        <_>
          7 22 6 9 -1.</_>
        <_>
          9 22 2 9 3.</_></rects>
      <tilted>0</tilted></_>
    <_>
      <rects>
        <_>
          8 0 10 15 -1.</_>
        <_>
          13 0 5 15 2.</_></rects>
      <tilted>0</tilted></_>
    <_>
      <rects>
        <_>
          8 0 6 24 -1.</_>
        <_>
          8 12 6 12 2.</_></rects>
      <tilted>0</tilted></_>
    <_>
      <rects>
        <_>
          8 1 2 3 -1.</_>
        <_>
          8 2 2 1 3.</_></rects>
      <tilted>0</tilted></_>
    <_>
      <rects>
        <_>
          8 9 9 16 -1.</_>
        <_>
          11 9 3 16 3.</_></rects>
      <tilted>0</tilted></_>
    <_>
      <rects>
        <_>
          8 12 3 15 -1.</_>
        <_>
          8 17 3 5 3.</_></rects>
      <tilted>0</tilted></_>
    <_>
      <rects>
        <_>
          8 14 1 18 -1.</_>
        <_>
          8 20 1 6 3.</_></rects>
      <tilted>0</tilted></_>
    <_>
      <rects>
        <_>
          8 15 2 2 -1.</_>
        <_>
          8 16 2 1 2.</_></rects>
      <tilted>0</tilted></_>
    <_>
      <rects>
        <_>
          8 15 3 3 -1.</_>
        <_>
          8 16 3 1 3.</_></rects>
      <tilted>0</tilted></_>
    <_>
      <rects>
        <_>
          8 17 2 15 -1.</_>
        <_>
          8 22 2 5 3.</_></rects>
      <tilted>0</tilted></_>
    <_>
      <rects>
        <_>
          8 17 9 5 -1.</_>
        <_>
          11 17 3 5 3.</_></rects>
      <tilted>0</tilted></_>
    <_>
      <rects>
        <_>
          8 19 2 4 -1.</_>
        <_>
          8 21 2 2 2.</_></rects>
      <tilted>0</tilted></_>
    <_>
      <rects>
        <_>
          8 21 6 9 -1.</_>
        <_>
          10 21 2 9 3.</_></rects>
      <tilted>0</tilted></_>
    <_>
      <rects>
        <_>
          8 24 3 2 -1.</_>
        <_>
          9 24 1 2 3.</_></rects>
      <tilted>0</tilted></_>
    <_>
      <rects>
        <_>
          8 25 3 3 -1.</_>
        <_>
          9 25 1 3 3.</_></rects>
      <tilted>0</tilted></_>
    <_>
      <rects>
        <_>
          9 14 2 15 -1.</_>
        <_>
          9 19 2 5 3.</_></rects>
      <tilted>0</tilted></_>
    <_>
      <rects>
        <_>
          9 18 4 1 -1.</_>
        <_>
          11 18 2 1 2.</_></rects>
      <tilted>0</tilted></_>
    <_>
      <rects>
        <_>
          9 18 9 4 -1.</_>
        <_>
          12 18 3 4 3.</_></rects>
      <tilted>0</tilted></_>
    <_>
      <rects>
        <_>
          9 19 1 4 -1.</_>
        <_>
          9 21 1 2 2.</_></rects>
      <tilted>0</tilted></_>
    <_>
      <rects>
        <_>
          9 19 9 2 -1.</_>
        <_>
          12 19 3 2 3.</_></rects>
      <tilted>0</tilted></_>
    <_>
      <rects>
        <_>
          9 20 6 8 -1.</_>
        <_>
          11 20 2 8 3.</_></rects>
      <tilted>0</tilted></_>
    <_>
      <rects>
        <_>
          9 23 3 4 -1.</_>
        <_>
          10 23 1 4 3.</_></rects>
      <tilted>0</tilted></_>
    <_>
      <rects>
        <_>
          9 24 3 1 -1.</_>
        <_>
          10 24 1 1 3.</_></rects>
      <tilted>0</tilted></_>
    <_>
      <rects>
        <_>
          9 24 3 4 -1.</_>
        <_>
          10 24 1 4 3.</_></rects>
      <tilted>0</tilted></_>
    <_>
      <rects>
        <_>
          10 4 3 1 -1.</_>
        <_>
          11 4 1 1 3.</_></rects>
      <tilted>0</tilted></_>
    <_>
      <rects>
        <_>
          10 4 8 20 -1.</_>
        <_>
          10 4 4 10 2.</_>
        <_>
          14 14 4 10 2.</_></rects>
      <tilted>0</tilted></_>
    <_>
      <rects>
        <_>
          10 5 2 16 -1.</_>
        <_>
          10 13 2 8 2.</_></rects>
      <tilted>0</tilted></_>
    <_>
      <rects>
        <_>
          10 10 6 10 -1.</_>
        <_>
          10 15 6 5 2.</_></rects>
      <tilted>0</tilted></_>
    <_>
      <rects>
        <_>
          10 13 8 11 -1.</_>
        <_>
          14 13 4 11 2.</_></rects>
      <tilted>0</tilted></_>
    <_>
      <rects>
        <_>
          10 13 8 13 -1.</_>
        <_>
          14 13 4 13 2.</_></rects>
      <tilted>0</tilted></_>
    <_>
      <rects>
        <_>
          10 18 6 2 -1.</_>
        <_>
          12 18 2 2 3.</_></rects>
      <tilted>0</tilted></_>
    <_>
      <rects>
        <_>
          10 23 6 2 -1.</_>
        <_>
          10 24 6 1 2.</_></rects>
      <tilted>0</tilted></_>
    <_>
      <rects>
        <_>
          10 26 1 2 -1.</_>
        <_>
          10 27 1 1 2.</_></rects>
      <tilted>0</tilted></_>
    <_>
      <rects>
        <_>
          11 0 1 26 -1.</_>
        <_>
          11 13 1 13 2.</_></rects>
      <tilted>0</tilted></_>
    <_>
      <rects>
        <_>
          11 10 3 10 -1.</_>
        <_>
          12 10 1 10 3.</_></rects>
      <tilted>0</tilted></_>
    <_>
      <rects>
        <_>
          11 13 6 12 -1.</_>
        <_>
          11 17 6 4 3.</_></rects>
      <tilted>0</tilted></_>
    <_>
      <rects>
        <_>
          11 14 7 12 -1.</_>
        <_>
          11 18 7 4 3.</_></rects>
      <tilted>0</tilted></_>
    <_>
      <rects>
        <_>
          11 15 1 2 -1.</_>
        <_>
          11 16 1 1 2.</_></rects>
      <tilted>0</tilted></_>
    <_>
      <rects>
        <_>
          11 17 6 7 -1.</_>
        <_>
          14 17 3 7 2.</_></rects>
      <tilted>0</tilted></_>
    <_>
      <rects>
        <_>
          11 18 4 4 -1.</_>
        <_>
          13 18 2 4 2.</_></rects>
      <tilted>0</tilted></_>
    <_>
      <rects>
        <_>
          11 19 6 1 -1.</_>
        <_>
          13 19 2 1 3.</_></rects>
      <tilted>0</tilted></_>
    <_>
      <rects>
        <_>
          11 26 5 2 -1.</_>
        <_>
          11 27 5 1 2.</_></rects>
      <tilted>0</tilted></_>
    <_>
      <rects>
        <_>
          12 0 4 1 -1.</_>
        <_>
          14 0 2 1 2.</_></rects>
      <tilted>0</tilted></_>
    <_>
      <rects>
        <_>
          12 9 6 19 -1.</_>
        <_>
          14 9 2 19 3.</_></rects>
      <tilted>0</tilted></_>
    <_>
      <rects>
        <_>
          12 12 4 8 -1.</_>
        <_>
          12 12 2 4 2.</_>
        <_>
          14 16 2 4 2.</_></rects>
      <tilted>0</tilted></_>
    <_>
      <rects>
        <_>
          12 13 3 14 -1.</_>
        <_>
          13 13 1 14 3.</_></rects>
      <tilted>0</tilted></_>
    <_>
      <rects>
        <_>
          12 16 6 5 -1.</_>
        <_>
          15 16 3 5 2.</_></rects>
      <tilted>0</tilted></_>
    <_>
      <rects>
        <_>
          12 16 5 6 -1.</_>
        <_>
          12 18 5 2 3.</_></rects>
      <tilted>0</tilted></_>
    <_>
      <rects>
        <_>
          12 17 6 6 -1.</_>
        <_>
          15 17 3 6 2.</_></rects>
      <tilted>0</tilted></_>
    <_>
      <rects>
        <_>
          12 18 3 2 -1.</_>
        <_>
          13 18 1 2 3.</_></rects>
      <tilted>0</tilted></_>
    <_>
      <rects>
        <_>
          12 18 6 1 -1.</_>
        <_>
          14 18 2 1 3.</_></rects>
      <tilted>0</tilted></_>
    <_>
      <rects>
        <_>
          12 18 6 14 -1.</_>
        <_>
          12 18 3 7 2.</_>
        <_>
          15 25 3 7 2.</_></rects>
      <tilted>0</tilted></_>
    <_>
      <rects>
        <_>
          12 20 2 1 -1.</_>
        <_>
          13 20 1 1 2.</_></rects>
      <tilted>0</tilted></_>
    <_>
      <rects>
        <_>
          12 23 6 3 -1.</_>
        <_>
          12 24 6 1 3.</_></rects>
      <tilted>0</tilted></_>
    <_>
      <rects>
        <_>
          13 15 3 9 -1.</_>
        <_>
          13 18 3 3 3.</_></rects>
      <tilted>0</tilted></_>
    <_>
      <rects>
        <_>
          13 17 4 6 -1.</_>
        <_>
          13 19 4 2 3.</_></rects>
      <tilted>0</tilted></_>
    <_>
      <rects>
        <_>
          14 9 4 7 -1.</_>
        <_>
          16 9 2 7 2.</_></rects>
      <tilted>0</tilted></_>
    <_>
      <rects>
        <_>
          14 12 4 3 -1.</_>
        <_>
          16 12 2 3 2.</_></rects>
      <tilted>0</tilted></_>
    <_>
      <rects>
        <_>
          14 21 4 2 -1.</_>
        <_>
          14 21 2 1 2.</_>
        <_>
          16 22 2 1 2.</_></rects>
      <tilted>0</tilted></_>
    <_>
      <rects>
        <_>
          14 26 3 3 -1.</_>
        <_>
          14 27 3 1 3.</_></rects>
      <tilted>0</tilted></_>
    <_>
      <rects>
        <_>
          15 8 2 24 -1.</_>
        <_>
          15 20 2 12 2.</_></rects>
      <tilted>0</tilted></_>
    <_>
      <rects>
        <_>
          15 10 1 22 -1.</_>
        <_>
          15 21 1 11 2.</_></rects>
      <tilted>0</tilted></_>
    <_>
      <rects>
        <_>
          16 3 2 3 -1.</_>
        <_>
          17 3 1 3 2.</_></rects>
      <tilted>0</tilted></_>
    <_>
      <rects>
        <_>
          16 6 2 18 -1.</_>
        <_>
          16 15 2 9 2.</_></rects>
      <tilted>0</tilted></_>
    <_>
      <rects>
        <_>
          16 8 2 20 -1.</_>
        <_>
          16 8 1 10 2.</_>
        <_>
          17 18 1 10 2.</_></rects>
      <tilted>0</tilted></_>
    <_>
      <rects>
        <_>
          16 9 2 23 -1.</_>
        <_>
          17 9 1 23 2.</_></rects>
      <tilted>0</tilted></_>
    <_>
      <rects>
        <_>
          16 11 2 12 -1.</_>
        <_>
          17 11 1 12 2.</_></rects>
      <tilted>0</tilted></_>
    <_>
      <rects>
        <_>
          16 11 2 14 -1.</_>
        <_>
          16 18 2 7 2.</_></rects>
      <tilted>0</tilted></_>
    <_>
      <rects>
        <_>
          16 14 2 18 -1.</_>
        <_>
          16 23 2 9 2.</_></rects>
      <tilted>0</tilted></_>
    <_>
      <rects>
        <_>
          17 7 1 15 -1.</_>
        <_>
          17 12 1 5 3.</_></rects>
      <tilted>0</tilted></_>
    <_>
      <rects>
        <_>
          17 9 1 20 -1.</_>
        <_>
          17 19 1 10 2.</_></rects>
      <tilted>0</tilted></_>
    <_>
      <rects>
        <_>
          17 10 1 6 -1.</_>
        <_>
          17 13 1 3 2.</_></rects>
      <tilted>0</tilted></_>
    <_>
      <rects>
        <_>
          17 10 1 16 -1.</_>
        <_>
          17 18 1 8 2.</_></rects>
      <tilted>0</tilted></_>
    <_>
      <rects>
        <_>
          17 11 1 20 -1.</_>
        <_>
          17 21 1 10 2.</_></rects>
      <tilted>0</tilted></_>
    <_>
      <rects>
        <_>
          17 12 1 8 -1.</_>
        <_>
          17 16 1 4 2.</_></rects>
      <tilted>0</tilted></_></features></cascade>
</opencv_storage>
