<?xml version="1.0"?>
<opencv_storage>
<cascade>
  <stageType>BOOST</stageType>
  <featureType>HAAR</featureType>
  <height>32</height>
  <width>18</width>
  <stageParams>
    <boostType>GAB</boostType>
    <minHitRate>9.9500000476837158e-01</minHitRate>
    <maxFalseAlarm>5.0000000000000000e-01</maxFalseAlarm>
    <weightTrimRate>9.4999999999999996e-01</weightTrimRate>
    <maxDepth>1</maxDepth>
    <maxWeakCount>100</maxWeakCount></stageParams>
  <featureParams>
    <maxCatCount>0</maxCatCount>
    <featSize>1</featSize>
    <mode>BASIC</mode></featureParams>
  <stageNum>18</stageNum>
  <stages>
    <!-- stage 0 -->
    <_>
      <maxWeakCount>2</maxWeakCount>
      <stageThreshold>3.1073445454239845e-02</stageThreshold>
      <weakClassifiers>
        <_>
          <internalNodes>
            0 -1 87 1.8819093704223633e-01</internalNodes>
          <leafValues>
            -8.8400000333786011e-01 9.4199997186660767e-01</leafValues></_>
        <_>
          <internalNodes>
            0 -1 29 4.4734723865985870e-02</internalNodes>
          <leafValues>
            -8.6381059885025024e-01 9.1507345438003540e-01</leafValues></_></weakClassifiers></_>
    <!-- stage 1 -->
    <_>
      <maxWeakCount>3</maxWeakCount>
      <stageThreshold>-9.3474251031875610e-01</stageThreshold>
      <weakClassifiers>
        <_>
          <internalNodes>
            0 -1 136 -5.8862563222646713e-02</internalNodes>
          <leafValues>
            9.0748029947280884e-01 -8.7190079689025879e-01</leafValues></_>
        <_>
          <internalNodes>
            0 -1 73 3.2639318704605103e-01</internalNodes>
          <leafValues>
            -6.7483460903167725e-01 8.1999939680099487e-01</leafValues></_>
        <_>
          <internalNodes>
            0 -1 163 -1.9054116681218147e-02</internalNodes>
          <leafValues>
            6.1199289560317993e-01 -8.1426650285720825e-01</leafValues></_></weakClassifiers></_>
    <!-- stage 2 -->
    <_>
      <maxWeakCount>2</maxWeakCount>
      <stageThreshold>1.9817788153886795e-02</stageThreshold>
      <weakClassifiers>
        <_>
          <internalNodes>
            0 -1 149 -5.1077902317047119e-02</internalNodes>
          <leafValues>
            8.5009860992431641e-01 -7.4485594034194946e-01</leafValues></_>
        <_>
          <internalNodes>
            0 -1 8 4.9663361161947250e-02</internalNodes>
          <leafValues>
            -7.7562397718429565e-01 7.6467376947402954e-01</leafValues></_></weakClassifiers></_>
    <!-- stage 3 -->
    <_>
      <maxWeakCount>5</maxWeakCount>
      <stageThreshold>-7.8357738256454468e-01</stageThreshold>
      <weakClassifiers>
        <_>
          <internalNodes>
            0 -1 11 1.4852465689182281e-01</internalNodes>
          <leafValues>
            -5.6143665313720703e-01 8.2080328464508057e-01</leafValues></_>
        <_>
          <internalNodes>
            0 -1 86 2.6231062412261963e-01</internalNodes>
          <leafValues>
            -6.2443476915359497e-01 6.8770533800125122e-01</leafValues></_>
        <_>
          <internalNodes>
            0 -1 167 -1.8859187141060829e-02</internalNodes>
          <leafValues>
            7.5455307960510254e-01 -4.3240207433700562e-01</leafValues></_>
        <_>
          <internalNodes>
            0 -1 48 7.8778993338346481e-03</internalNodes>
          <leafValues>
            -5.3220874071121216e-01 5.8655023574829102e-01</leafValues></_>
        <_>
          <internalNodes>
            0 -1 176 4.5255403965711594e-03</internalNodes>
          <leafValues>
            2.4814593791961670e-01 -8.5549122095108032e-01</leafValues></_></weakClassifiers></_>
    <!-- stage 4 -->
    <_>
      <maxWeakCount>7</maxWeakCount>
      <stageThreshold>-1.2717041969299316e+00</stageThreshold>
      <weakClassifiers>
        <_>
          <internalNodes>
            0 -1 75 2.9796081781387329e-01</internalNodes>
          <leafValues>
            -4.7794118523597717e-01 7.9497909545898438e-01</leafValues></_>
        <_>
          <internalNodes>
            0 -1 17 3.1578198075294495e-01</internalNodes>
          <leafValues>
            -5.7535243034362793e-01 6.6740220785140991e-01</leafValues></_>
        <_>
          <internalNodes>
            0 -1 148 4.0145572274923325e-02</internalNodes>
          <leafValues>
            -6.7805826663970947e-01 4.3339028954505920e-01</leafValues></_>
        <_>
          <internalNodes>
            0 -1 46 1.9873129203915596e-03</internalNodes>
          <leafValues>
            2.4674953520298004e-01 -7.8425616025924683e-01</leafValues></_>
        <_>
          <internalNodes>
            0 -1 53 2.0101718604564667e-02</internalNodes>
          <leafValues>
            -5.1491266489028931e-01 4.1607639193534851e-01</leafValues></_>
        <_>
          <internalNodes>
            0 -1 168 2.2055413573980331e-02</internalNodes>
          <leafValues>
            -6.4265406131744385e-01 3.1946676969528198e-01</leafValues></_>
        <_>
          <internalNodes>
            0 -1 0 2.7839273680001497e-03</internalNodes>
          <leafValues>
            2.5901633501052856e-01 -7.7028614282608032e-01</leafValues></_></weakClassifiers></_>
    <!-- stage 5 -->
    <_>
      <maxWeakCount>8</maxWeakCount>
      <stageThreshold>-9.3400925397872925e-01</stageThreshold>
      <weakClassifiers>
        <_>
          <internalNodes>
            0 -1 114 1.1557535827159882e-01</internalNodes>
          <leafValues>
            -5.8961039781570435e-01 6.5201795101165771e-01</leafValues></_>
        <_>
          <internalNodes>
            0 -1 31 6.2920928001403809e-02</internalNodes>
          <leafValues>
            -5.4729789495468140e-01 6.0612493753433228e-01</leafValues></_>
        <_>
          <internalNodes>
            0 -1 117 4.7831315547227859e-02</internalNodes>
          <leafValues>
            -4.4594135880470276e-01 6.3980090618133545e-01</leafValues></_>
        <_>
          <internalNodes>
            0 -1 59 -6.5029442310333252e-02</internalNodes>
          <leafValues>
            3.4929251670837402e-01 -6.4567494392395020e-01</leafValues></_>
        <_>
          <internalNodes>
            0 -1 185 3.0527398921549320e-03</internalNodes>
          <leafValues>
            2.5535887479782104e-01 -7.9284131526947021e-01</leafValues></_>
        <_>
          <internalNodes>
            0 -1 151 3.4696608781814575e-02</internalNodes>
          <leafValues>
            -6.3455033302307129e-01 3.9493766427040100e-01</leafValues></_>
        <_>
          <internalNodes>
            0 -1 10 2.4682411551475525e-01</internalNodes>
          <leafValues>
            -6.6311860084533691e-01 3.0376479029655457e-01</leafValues></_>
        <_>
          <internalNodes>
            0 -1 79 1.4102091081440449e-02</internalNodes>
          <leafValues>
            -5.5151832103729248e-01 3.4045398235321045e-01</leafValues></_></weakClassifiers></_>
    <!-- stage 6 -->
    <_>
      <maxWeakCount>10</maxWeakCount>
      <stageThreshold>-8.9373612403869629e-01</stageThreshold>
      <weakClassifiers>
        <_>
          <internalNodes>
            0 -1 47 5.2710283547639847e-02</internalNodes>
          <leafValues>
            -6.2300318479537964e-01 5.8550971746444702e-01</leafValues></_>
        <_>
          <internalNodes>
            0 -1 19 2.4484089016914368e-01</internalNodes>
          <leafValues>
            -6.3670092821121216e-01 4.8733285069465637e-01</leafValues></_>
        <_>
          <internalNodes>
            0 -1 150 -9.1956414282321930e-02</internalNodes>
          <leafValues>
            5.4259008169174194e-01 -4.1025730967521667e-01</leafValues></_>
        <_>
          <internalNodes>
            0 -1 65 1.2368153780698776e-02</internalNodes>
          <leafValues>
            -6.1721611022949219e-01 3.2137504220008850e-01</leafValues></_>
        <_>
          <internalNodes>
            0 -1 189 1.8713087774813175e-03</internalNodes>
          <leafValues>
            1.8403650820255280e-01 -7.4991458654403687e-01</leafValues></_>
        <_>
          <internalNodes>
            0 -1 140 -4.5049596577882767e-02</internalNodes>
          <leafValues>
            1.7030720412731171e-01 -8.5638827085494995e-01</leafValues></_>
        <_>
          <internalNodes>
            0 -1 14 5.1352749578654766e-03</internalNodes>
          <leafValues>
            1.4089114964008331e-01 -8.5172855854034424e-01</leafValues></_>
        <_>
          <internalNodes>
            0 -1 106 3.0788711737841368e-03</internalNodes>
          <leafValues>
            -3.5135865211486816e-01 4.6856710314750671e-01</leafValues></_>
        <_>
          <internalNodes>
            0 -1 146 -2.7498781681060791e-02</internalNodes>
          <leafValues>
            1.8485575914382935e-01 -7.6034271717071533e-01</leafValues></_>
        <_>
          <internalNodes>
            0 -1 30 3.0246458481997252e-03</internalNodes>
          <leafValues>
            1.2611827254295349e-01 -8.7751209735870361e-01</leafValues></_></weakClassifiers></_>
    <!-- stage 7 -->
    <_>
      <maxWeakCount>12</maxWeakCount>
      <stageThreshold>-1.2791115045547485e+00</stageThreshold>
      <weakClassifiers>
        <_>
          <internalNodes>
            0 -1 76 3.6933287978172302e-01</internalNodes>
          <leafValues>
            -2.3228995501995087e-01 7.1780514717102051e-01</leafValues></_>
        <_>
          <internalNodes>
            0 -1 9 3.2131356000900269e-01</internalNodes>
          <leafValues>
            -6.3291221857070923e-01 4.8513332009315491e-01</leafValues></_>
        <_>
          <internalNodes>
            0 -1 159 1.6910437494516373e-02</internalNodes>
          <leafValues>
            -6.2895834445953369e-01 2.6232337951660156e-01</leafValues></_>
        <_>
          <internalNodes>
            0 -1 52 1.3374792411923409e-02</internalNodes>
          <leafValues>
            -4.3021827936172485e-01 3.5505938529968262e-01</leafValues></_>
        <_>
          <internalNodes>
            0 -1 1 -2.7359295636415482e-03</internalNodes>
          <leafValues>
            -7.1261119842529297e-01 1.8239043653011322e-01</leafValues></_>
        <_>
          <internalNodes>
            0 -1 94 1.7146894335746765e-01</internalNodes>
          <leafValues>
            -5.8626616001129150e-01 2.3272390663623810e-01</leafValues></_>
        <_>
          <internalNodes>
            0 -1 160 5.7533485814929008e-03</internalNodes>
          <leafValues>
            -3.5050728917121887e-01 4.4854530692100525e-01</leafValues></_>
        <_>
          <internalNodes>
            0 -1 188 2.9496613424271345e-03</internalNodes>
          <leafValues>
            1.4317545294761658e-01 -7.9945975542068481e-01</leafValues></_>
        <_>
          <internalNodes>
            0 -1 56 -1.1271603871136904e-03</internalNodes>
          <leafValues>
            2.1313567459583282e-01 -5.6762498617172241e-01</leafValues></_>
        <_>
          <internalNodes>
            0 -1 119 4.8784636892378330e-03</internalNodes>
          <leafValues>
            -2.6824641227722168e-01 4.8440036177635193e-01</leafValues></_>
        <_>
          <internalNodes>
            0 -1 172 2.5278120301663876e-03</internalNodes>
          <leafValues>
            1.7402480542659760e-01 -7.9949134588241577e-01</leafValues></_>
        <_>
          <internalNodes>
            0 -1 181 -8.8730937568470836e-04</internalNodes>
          <leafValues>
            -5.6102573871612549e-01 2.0804961025714874e-01</leafValues></_></weakClassifiers></_>
    <!-- stage 8 -->
    <_>
      <maxWeakCount>10</maxWeakCount>
      <stageThreshold>-8.5337126255035400e-01</stageThreshold>
      <weakClassifiers>
        <_>
          <internalNodes>
            0 -1 74 5.5112678557634354e-02</internalNodes>
          <leafValues>
            -6.5492957830429077e-01 5.6414473056793213e-01</leafValues></_>
        <_>
          <internalNodes>
            0 -1 34 1.3558265566825867e-01</internalNodes>
          <leafValues>
            -4.6203172206878662e-01 5.3712987899780273e-01</leafValues></_>
        <_>
          <internalNodes>
            0 -1 42 2.5803614407777786e-02</internalNodes>
          <leafValues>
            -8.8013714551925659e-01 2.5826346874237061e-01</leafValues></_>
        <_>
          <internalNodes>
            0 -1 153 -4.8022933304309845e-02</internalNodes>
          <leafValues>
            1.7561706900596619e-01 -7.5539022684097290e-01</leafValues></_>
        <_>
          <internalNodes>
            0 -1 187 3.2806405797600746e-03</internalNodes>
          <leafValues>
            1.5900169312953949e-01 -8.0926203727722168e-01</leafValues></_>
        <_>
          <internalNodes>
            0 -1 131 -2.0110411569476128e-03</internalNodes>
          <leafValues>
            -8.8198989629745483e-01 1.1311314254999161e-01</leafValues></_>
        <_>
          <internalNodes>
            0 -1 169 1.0635311715304852e-02</internalNodes>
          <leafValues>
            -2.9158475995063782e-01 5.2507269382476807e-01</leafValues></_>
        <_>
          <internalNodes>
            0 -1 69 5.3506612312048674e-04</internalNodes>
          <leafValues>
            1.6882878541946411e-01 -8.1975251436233521e-01</leafValues></_>
        <_>
          <internalNodes>
            0 -1 45 1.1613217182457447e-02</internalNodes>
          <leafValues>
            -3.0224522948265076e-01 4.3706858158111572e-01</leafValues></_>
        <_>
          <internalNodes>
            0 -1 120 -5.8761623222380877e-04</internalNodes>
          <leafValues>
            -7.3261117935180664e-01 1.7428934574127197e-01</leafValues></_></weakClassifiers></_>
    <!-- stage 9 -->
    <_>
      <maxWeakCount>11</maxWeakCount>
      <stageThreshold>-1.0168541669845581e+00</stageThreshold>
      <weakClassifiers>
        <_>
          <internalNodes>
            0 -1 33 -2.5566563010215759e-02</internalNodes>
          <leafValues>
            5.2160000801086426e-01 -6.0799998044967651e-01</leafValues></_>
        <_>
          <internalNodes>
            0 -1 23 3.0438699759542942e-03</internalNodes>
          <leafValues>
            2.3078459501266479e-01 -8.4274536371231079e-01</leafValues></_>
        <_>
          <internalNodes>
            0 -1 132 -1.1761502921581268e-01</internalNodes>
          <leafValues>
            4.0874049067497253e-01 -4.5407867431640625e-01</leafValues></_>
        <_>
          <internalNodes>
            0 -1 97 -4.9477547872811556e-04</internalNodes>
          <leafValues>
            4.0891018509864807e-01 -3.8587060570716858e-01</leafValues></_>
        <_>
          <internalNodes>
            0 -1 5 1.6993293166160583e-01</internalNodes>
          <leafValues>
            -5.7379323244094849e-01 2.8143569827079773e-01</leafValues></_>
        <_>
          <internalNodes>
            0 -1 161 1.9860919564962387e-02</internalNodes>
          <leafValues>
            -6.0056239366531372e-01 2.6428002119064331e-01</leafValues></_>
        <_>
          <internalNodes>
            0 -1 144 -3.6763299722224474e-03</internalNodes>
          <leafValues>
            -7.8593373298645020e-01 1.4406743645668030e-01</leafValues></_>
        <_>
          <internalNodes>
            0 -1 102 1.6464561922475696e-03</internalNodes>
          <leafValues>
            -2.6106247305870056e-01 5.5551040172576904e-01</leafValues></_>
        <_>
          <internalNodes>
            0 -1 184 -3.9741173386573792e-03</internalNodes>
          <leafValues>
            -7.3467350006103516e-01 1.4105941355228424e-01</leafValues></_>
        <_>
          <internalNodes>
            0 -1 32 4.3103381176479161e-04</internalNodes>
          <leafValues>
            -4.2363423109054565e-01 2.8552514314651489e-01</leafValues></_>
        <_>
          <internalNodes>
            0 -1 156 2.6191326323896646e-03</internalNodes>
          <leafValues>
            1.6977098584175110e-01 -6.7240864038467407e-01</leafValues></_></weakClassifiers></_>
    <!-- stage 10 -->
    <_>
      <maxWeakCount>15</maxWeakCount>
      <stageThreshold>-9.8572641611099243e-01</stageThreshold>
      <weakClassifiers>
        <_>
          <internalNodes>
            0 -1 145 -7.7253252267837524e-02</internalNodes>
          <leafValues>
            6.1132073402404785e-01 -3.3636364340782166e-01</leafValues></_>
        <_>
          <internalNodes>
            0 -1 20 3.1020388007164001e-01</internalNodes>
          <leafValues>
            -5.6876027584075928e-01 3.4299492835998535e-01</leafValues></_>
        <_>
          <internalNodes>
            0 -1 64 5.0260633230209351e-02</internalNodes>
          <leafValues>
            -3.3860427141189575e-01 4.0670305490493774e-01</leafValues></_>
        <_>
          <internalNodes>
            0 -1 50 4.1546602733433247e-03</internalNodes>
          <leafValues>
            -4.8824575543403625e-01 2.4780504405498505e-01</leafValues></_>
        <_>
          <internalNodes>
            0 -1 16 2.1389522589743137e-03</internalNodes>
          <leafValues>
            1.6791987419128418e-01 -7.2735852003097534e-01</leafValues></_>
        <_>
          <internalNodes>
            0 -1 127 1.3189221499487758e-04</internalNodes>
          <leafValues>
            -4.1509541869163513e-01 3.0246832966804504e-01</leafValues></_>
        <_>
          <internalNodes>
            0 -1 100 -1.1910112807527184e-03</internalNodes>
          <leafValues>
            -5.8960872888565063e-01 1.8513682484626770e-01</leafValues></_>
        <_>
          <internalNodes>
            0 -1 80 -3.1448608636856079e-01</internalNodes>
          <leafValues>
            6.1672270298004150e-01 -2.2426334023475647e-01</leafValues></_>
        <_>
          <internalNodes>
            0 -1 155 3.5877608752343804e-05</internalNodes>
          <leafValues>
            -3.5086625814437866e-01 3.4404528141021729e-01</leafValues></_>
        <_>
          <internalNodes>
            0 -1 55 1.1941705830395222e-02</internalNodes>
          <leafValues>
            -2.7727800607681274e-01 4.1148799657821655e-01</leafValues></_>
        <_>
          <internalNodes>
            0 -1 157 -9.0323276817798615e-03</internalNodes>
          <leafValues>
            1.6291600465774536e-01 -7.0250117778778076e-01</leafValues></_>
        <_>
          <internalNodes>
            0 -1 37 1.6720301937311888e-03</internalNodes>
          <leafValues>
            1.2345622479915619e-01 -7.5040191411972046e-01</leafValues></_>
        <_>
          <internalNodes>
            0 -1 125 7.5806103646755219e-02</internalNodes>
          <leafValues>
            -5.7894378900527954e-01 1.5960600972175598e-01</leafValues></_>
        <_>
          <internalNodes>
            0 -1 116 -1.3081310316920280e-03</internalNodes>
          <leafValues>
            4.0363833308219910e-01 -2.6076385378837585e-01</leafValues></_>
        <_>
          <internalNodes>
            0 -1 182 -2.0568356849253178e-03</internalNodes>
          <leafValues>
            -6.4260262250900269e-01 1.8199206888675690e-01</leafValues></_></weakClassifiers></_>
    <!-- stage 11 -->
    <_>
      <maxWeakCount>15</maxWeakCount>
      <stageThreshold>-8.3957737684249878e-01</stageThreshold>
      <weakClassifiers>
        <_>
          <internalNodes>
            0 -1 147 1.4549998566508293e-02</internalNodes>
          <leafValues>
            -5.2173912525177002e-01 4.8818898200988770e-01</leafValues></_>
        <_>
          <internalNodes>
            0 -1 3 1.3261371850967407e-01</internalNodes>
          <leafValues>
            -4.7243538498878479e-01 3.9576745033264160e-01</leafValues></_>
        <_>
          <internalNodes>
            0 -1 174 1.3727761106565595e-03</internalNodes>
          <leafValues>
            2.3489384353160858e-01 -6.2333869934082031e-01</leafValues></_>
        <_>
          <internalNodes>
            0 -1 115 3.0577510595321655e-02</internalNodes>
          <leafValues>
            -5.8278632164001465e-01 2.0497679710388184e-01</leafValues></_>
        <_>
          <internalNodes>
            0 -1 130 2.5924572255462408e-03</internalNodes>
          <leafValues>
            1.4552836120128632e-01 -9.2118555307388306e-01</leafValues></_>
        <_>
          <internalNodes>
            0 -1 128 2.3713059723377228e-02</internalNodes>
          <leafValues>
            -2.8839746117591858e-01 4.5621564984321594e-01</leafValues></_>
        <_>
          <internalNodes>
            0 -1 41 3.9363332092761993e-02</internalNodes>
          <leafValues>
            -5.9163939952850342e-01 2.0925632119178772e-01</leafValues></_>
        <_>
          <internalNodes>
            0 -1 81 4.8820935189723969e-03</internalNodes>
          <leafValues>
            -4.1366738080978394e-01 2.8674200177192688e-01</leafValues></_>
        <_>
          <internalNodes>
            0 -1 190 -1.0123075917363167e-02</internalNodes>
          <leafValues>
            -6.6014260053634644e-01 1.9394078850746155e-01</leafValues></_>
        <_>
          <internalNodes>
            0 -1 129 -4.8705871449783444e-04</internalNodes>
          <leafValues>
            -5.8113771677017212e-01 1.5417008101940155e-01</leafValues></_>
        <_>
          <internalNodes>
            0 -1 12 -3.3933375962078571e-03</internalNodes>
          <leafValues>
            2.0209135115146637e-01 -4.9662950634956360e-01</leafValues></_>
        <_>
          <internalNodes>
            0 -1 173 -1.8333055777475238e-03</internalNodes>
          <leafValues>
            -6.0028040409088135e-01 1.9540856778621674e-01</leafValues></_>
        <_>
          <internalNodes>
            0 -1 101 2.3408951237797737e-03</internalNodes>
          <leafValues>
            -2.0036412775516510e-01 6.0726290941238403e-01</leafValues></_>
        <_>
          <internalNodes>
            0 -1 104 -6.8882270716130733e-04</internalNodes>
          <leafValues>
            5.9616482257843018e-01 -1.5964965522289276e-01</leafValues></_>
        <_>
          <internalNodes>
            0 -1 82 -3.6442946642637253e-02</internalNodes>
          <leafValues>
            4.4105136394500732e-01 -2.8173729777336121e-01</leafValues></_></weakClassifiers></_>
    <!-- stage 12 -->
    <_>
      <maxWeakCount>14</maxWeakCount>
      <stageThreshold>-1.0870226621627808e+00</stageThreshold>
      <weakClassifiers>
        <_>
          <internalNodes>
            0 -1 158 4.5258730649948120e-02</internalNodes>
          <leafValues>
            -2.5700935721397400e-01 5.6902986764907837e-01</leafValues></_>
        <_>
          <internalNodes>
            0 -1 122 -1.2920495867729187e-01</internalNodes>
          <leafValues>
            3.8418585062026978e-01 -4.5065301656723022e-01</leafValues></_>
        <_>
          <internalNodes>
            0 -1 67 5.2480129525065422e-03</internalNodes>
          <leafValues>
            -3.3401441574096680e-01 4.1052380204200745e-01</leafValues></_>
        <_>
          <internalNodes>
            0 -1 126 3.1316780950874090e-04</internalNodes>
          <leafValues>
            -4.0080493688583374e-01 3.5369354486465454e-01</leafValues></_>
        <_>
          <internalNodes>
            0 -1 63 5.6662537157535553e-02</internalNodes>
          <leafValues>
            -6.9463700056076050e-01 1.7376591265201569e-01</leafValues></_>
        <_>
          <internalNodes>
            0 -1 35 1.0637798905372620e-01</internalNodes>
          <leafValues>
            -2.0566357672214508e-01 5.7222348451614380e-01</leafValues></_>
        <_>
          <internalNodes>
            0 -1 96 -3.5725941415876150e-03</internalNodes>
          <leafValues>
            6.4317780733108521e-01 -1.9137138128280640e-01</leafValues></_>
        <_>
          <internalNodes>
            0 -1 27 2.6065204292535782e-03</internalNodes>
          <leafValues>
            1.9833229482173920e-01 -7.5921207666397095e-01</leafValues></_>
        <_>
          <internalNodes>
            0 -1 92 -9.9193362984806299e-05</internalNodes>
          <leafValues>
            1.5241141617298126e-01 -6.0433626174926758e-01</leafValues></_>
        <_>
          <internalNodes>
            0 -1 7 2.2269759210757911e-04</internalNodes>
          <leafValues>
            -4.0205797553062439e-01 2.7960973978042603e-01</leafValues></_>
        <_>
          <internalNodes>
            0 -1 177 -1.6823390033096075e-03</internalNodes>
          <leafValues>
            1.8598927557468414e-01 -5.4771155118942261e-01</leafValues></_>
        <_>
          <internalNodes>
            0 -1 107 3.6634076386690140e-03</internalNodes>
          <leafValues>
            1.1832709610462189e-01 -8.0321854352951050e-01</leafValues></_>
        <_>
          <internalNodes>
            0 -1 186 7.2576547972857952e-03</internalNodes>
          <leafValues>
            1.2469390779733658e-01 -7.5020998716354370e-01</leafValues></_>
        <_>
          <internalNodes>
            0 -1 21 -2.5846122298389673e-03</internalNodes>
          <leafValues>
            -8.1834590435028076e-01 1.0018368810415268e-01</leafValues></_></weakClassifiers></_>
    <!-- stage 13 -->
    <_>
      <maxWeakCount>16</maxWeakCount>
      <stageThreshold>-1.0473717451095581e+00</stageThreshold>
      <weakClassifiers>
        <_>
          <internalNodes>
            0 -1 83 2.0404109358787537e-01</internalNodes>
          <leafValues>
            -3.4124627709388733e-01 5.2880483865737915e-01</leafValues></_>
        <_>
          <internalNodes>
            0 -1 139 1.6181467100977898e-02</internalNodes>
          <leafValues>
            -3.1267926096916199e-01 3.9070007205009460e-01</leafValues></_>
        <_>
          <internalNodes>
            0 -1 54 1.0309078730642796e-02</internalNodes>
          <leafValues>
            -3.9999696612358093e-01 3.0052000284194946e-01</leafValues></_>
        <_>
          <internalNodes>
            0 -1 91 1.1705240234732628e-02</internalNodes>
          <leafValues>
            -5.2863907814025879e-01 2.0025819540023804e-01</leafValues></_>
        <_>
          <internalNodes>
            0 -1 121 3.1787599436938763e-03</internalNodes>
          <leafValues>
            1.2565384805202484e-01 -8.7131375074386597e-01</leafValues></_>
        <_>
          <internalNodes>
            0 -1 164 2.3113968782126904e-03</internalNodes>
          <leafValues>
            -5.4642021656036377e-01 1.5506052970886230e-01</leafValues></_>
        <_>
          <internalNodes>
            0 -1 123 -8.8840641546994448e-04</internalNodes>
          <leafValues>
            5.8668392896652222e-01 -1.7705650627613068e-01</leafValues></_>
        <_>
          <internalNodes>
            0 -1 88 4.0906690061092377e-02</internalNodes>
          <leafValues>
            -1.9678701460361481e-01 6.4119845628738403e-01</leafValues></_>
        <_>
          <internalNodes>
            0 -1 40 1.5150879044085741e-03</internalNodes>
          <leafValues>
            2.3105067014694214e-01 -5.3735065460205078e-01</leafValues></_>
        <_>
          <internalNodes>
            0 -1 36 -5.4753273725509644e-02</internalNodes>
          <leafValues>
            2.8400036692619324e-01 -3.9614170789718628e-01</leafValues></_>
        <_>
          <internalNodes>
            0 -1 175 -1.4261528849601746e-02</internalNodes>
          <leafValues>
            -7.5780129432678223e-01 1.4619079232215881e-01</leafValues></_>
        <_>
          <internalNodes>
            0 -1 183 2.6698927395045757e-03</internalNodes>
          <leafValues>
            1.3284231722354889e-01 -5.9210383892059326e-01</leafValues></_>
        <_>
          <internalNodes>
            0 -1 180 -3.3149509690701962e-03</internalNodes>
          <leafValues>
            -5.5052608251571655e-01 1.8284451961517334e-01</leafValues></_>
        <_>
          <internalNodes>
            0 -1 98 -1.9794708350673318e-04</internalNodes>
          <leafValues>
            3.0295586585998535e-01 -3.2881328463554382e-01</leafValues></_>
        <_>
          <internalNodes>
            0 -1 26 1.2704642722383142e-03</internalNodes>
          <leafValues>
            1.3501395285129547e-01 -6.2482768297195435e-01</leafValues></_>
        <_>
          <internalNodes>
            0 -1 162 -2.9360444750636816e-04</internalNodes>
          <leafValues>
            3.4795844554901123e-01 -2.8839737176895142e-01</leafValues></_></weakClassifiers></_>
    <!-- stage 14 -->
    <_>
      <maxWeakCount>16</maxWeakCount>
      <stageThreshold>-9.7898226976394653e-01</stageThreshold>
      <weakClassifiers>
        <_>
          <internalNodes>
            0 -1 142 -1.5153909771470353e-05</internalNodes>
          <leafValues>
            5.0700742006301880e-01 -4.0069687366485596e-01</leafValues></_>
        <_>
          <internalNodes>
            0 -1 170 5.2704224362969398e-03</internalNodes>
          <leafValues>
            -3.3523166179656982e-01 3.4153169393539429e-01</leafValues></_>
        <_>
          <internalNodes>
            0 -1 6 3.7506854534149170e-01</internalNodes>
          <leafValues>
            -5.1809138059616089e-01 2.3225577175617218e-01</leafValues></_>
        <_>
          <internalNodes>
            0 -1 118 1.2098972685635090e-02</internalNodes>
          <leafValues>
            -3.0179005861282349e-01 3.7495377659797668e-01</leafValues></_>
        <_>
          <internalNodes>
            0 -1 49 1.5328289009630680e-02</internalNodes>
          <leafValues>
            -4.6701991558074951e-01 2.2005876898765564e-01</leafValues></_>
        <_>
          <internalNodes>
            0 -1 70 4.7776405699551105e-04</internalNodes>
          <leafValues>
            1.1723302304744720e-01 -7.7859348058700562e-01</leafValues></_>
        <_>
          <internalNodes>
            0 -1 178 4.8335175961256027e-03</internalNodes>
          <leafValues>
            7.9305857419967651e-02 -9.0563452243804932e-01</leafValues></_>
        <_>
          <internalNodes>
            0 -1 112 1.6238316893577576e-03</internalNodes>
          <leafValues>
            -1.4705844223499298e-01 7.7001410722732544e-01</leafValues></_>
        <_>
          <internalNodes>
            0 -1 108 1.0259039700031281e-03</internalNodes>
          <leafValues>
            -5.1762539148330688e-01 1.8844892084598541e-01</leafValues></_>
        <_>
          <internalNodes>
            0 -1 43 2.1580359898507595e-03</internalNodes>
          <leafValues>
            1.8245398998260498e-01 -5.2716279029846191e-01</leafValues></_>
        <_>
          <internalNodes>
            0 -1 2 -2.3771170526742935e-03</internalNodes>
          <leafValues>
            -6.6564166545867920e-01 1.3246889412403107e-01</leafValues></_>
        <_>
          <internalNodes>
            0 -1 66 -3.4243851900100708e-01</internalNodes>
          <leafValues>
            4.2104509472846985e-01 -2.1702937781810760e-01</leafValues></_>
        <_>
          <internalNodes>
            0 -1 78 7.6078530400991440e-03</internalNodes>
          <leafValues>
            -1.8729229271411896e-01 5.2947884798049927e-01</leafValues></_>
        <_>
          <internalNodes>
            0 -1 124 -1.5513915568590164e-03</internalNodes>
          <leafValues>
            6.0103946924209595e-01 -1.4321005344390869e-01</leafValues></_>
        <_>
          <internalNodes>
            0 -1 28 3.0074650421738625e-03</internalNodes>
          <leafValues>
            1.3135790824890137e-01 -7.4118542671203613e-01</leafValues></_>
        <_>
          <internalNodes>
            0 -1 84 1.7764410376548767e-01</internalNodes>
          <leafValues>
            -5.2326464653015137e-01 1.5682207047939301e-01</leafValues></_></weakClassifiers></_>
    <!-- stage 15 -->
    <_>
      <maxWeakCount>15</maxWeakCount>
      <stageThreshold>-8.5623574256896973e-01</stageThreshold>
      <weakClassifiers>
        <_>
          <internalNodes>
            0 -1 62 4.9174381420016289e-03</internalNodes>
          <leafValues>
            5.2226024866104126e-01 -3.3132529258728027e-01</leafValues></_>
        <_>
          <internalNodes>
            0 -1 51 6.1413166113197803e-03</internalNodes>
          <leafValues>
            -3.3816367387771606e-01 3.5484737157821655e-01</leafValues></_>
        <_>
          <internalNodes>
            0 -1 113 1.2765992432832718e-03</internalNodes>
          <leafValues>
            -2.3696528375148773e-01 4.8678067326545715e-01</leafValues></_>
        <_>
          <internalNodes>
            0 -1 58 -6.6687243815977126e-05</internalNodes>
          <leafValues>
            1.7415589094161987e-01 -6.5432637929916382e-01</leafValues></_>
        <_>
          <internalNodes>
            0 -1 154 1.5379591786768287e-05</internalNodes>
          <leafValues>
            -5.0400078296661377e-01 2.0940998196601868e-01</leafValues></_>
        <_>
          <internalNodes>
            0 -1 44 1.6183252446353436e-03</internalNodes>
          <leafValues>
            1.2541583180427551e-01 -5.8927512168884277e-01</leafValues></_>
        <_>
          <internalNodes>
            0 -1 111 4.0724799036979675e-03</internalNodes>
          <leafValues>
            1.2076508998870850e-01 -8.2523739337921143e-01</leafValues></_>
        <_>
          <internalNodes>
            0 -1 99 2.6568197645246983e-03</internalNodes>
          <leafValues>
            -4.8282650113105774e-01 1.8266518414020538e-01</leafValues></_>
        <_>
          <internalNodes>
            0 -1 138 1.0717444121837616e-02</internalNodes>
          <leafValues>
            -3.2457602024078369e-01 3.1853869557380676e-01</leafValues></_>
        <_>
          <internalNodes>
            0 -1 85 3.7206234410405159e-03</internalNodes>
          <leafValues>
            -1.5134637057781219e-01 6.8543714284896851e-01</leafValues></_>
        <_>
          <internalNodes>
            0 -1 15 2.5329010095447302e-03</internalNodes>
          <leafValues>
            1.5383425354957581e-01 -7.2923636436462402e-01</leafValues></_>
        <_>
          <internalNodes>
            0 -1 137 -3.6265160888433456e-03</internalNodes>
          <leafValues>
            -7.6404368877410889e-01 9.9519588053226471e-02</leafValues></_>
        <_>
          <internalNodes>
            0 -1 25 2.9530848842114210e-03</internalNodes>
          <leafValues>
            -3.8408127427101135e-01 2.3064740002155304e-01</leafValues></_>
        <_>
          <internalNodes>
            0 -1 71 -1.5314482152462006e-02</internalNodes>
          <leafValues>
            6.7845100164413452e-01 -1.5134909749031067e-01</leafValues></_>
        <_>
          <internalNodes>
            0 -1 165 1.2469463050365448e-02</internalNodes>
          <leafValues>
            -9.3606337904930115e-02 8.7411451339721680e-01</leafValues></_></weakClassifiers></_>
    <!-- stage 16 -->
    <_>
      <maxWeakCount>13</maxWeakCount>
      <stageThreshold>-6.6128110885620117e-01</stageThreshold>
      <weakClassifiers>
        <_>
          <internalNodes>
            0 -1 141 2.2115837782621384e-02</internalNodes>
          <leafValues>
            -3.1888544559478760e-01 5.1231944561004639e-01</leafValues></_>
        <_>
          <internalNodes>
            0 -1 61 1.0533180087804794e-02</internalNodes>
          <leafValues>
            -2.2487033903598785e-01 4.3265837430953979e-01</leafValues></_>
        <_>
          <internalNodes>
            0 -1 89 4.2015336453914642e-02</internalNodes>
          <leafValues>
            1.5937727689743042e-01 -6.2594109773635864e-01</leafValues></_>
        <_>
          <internalNodes>
            0 -1 22 -3.4874054836109281e-04</internalNodes>
          <leafValues>
            1.9474263489246368e-01 -5.2453297376632690e-01</leafValues></_>
        <_>
          <internalNodes>
            0 -1 133 -2.2903583012521267e-03</internalNodes>
          <leafValues>
            2.7378666400909424e-01 -3.8588955998420715e-01</leafValues></_>
        <_>
          <internalNodes>
            0 -1 18 -1.7199531197547913e-02</internalNodes>
          <leafValues>
            -6.6157543659210205e-01 1.5304642915725708e-01</leafValues></_>
        <_>
          <internalNodes>
            0 -1 171 1.5830451156944036e-03</internalNodes>
          <leafValues>
            -2.3634567856788635e-01 4.5708009600639343e-01</leafValues></_>
        <_>
          <internalNodes>
            0 -1 166 -1.1375860311090946e-02</internalNodes>
          <leafValues>
            3.3690562844276428e-01 -3.2071128487586975e-01</leafValues></_>
        <_>
          <internalNodes>
            0 -1 105 1.3034220319241285e-03</internalNodes>
          <leafValues>
            -2.6645994186401367e-01 3.7218469381332397e-01</leafValues></_>
        <_>
          <internalNodes>
            0 -1 39 3.5186347085982561e-03</internalNodes>
          <leafValues>
            1.4910678565502167e-01 -7.6782727241516113e-01</leafValues></_>
        <_>
          <internalNodes>
            0 -1 93 -5.8511469978839159e-04</internalNodes>
          <leafValues>
            -3.9642080664634705e-01 2.3019541800022125e-01</leafValues></_>
        <_>
          <internalNodes>
            0 -1 109 -2.8384514735080302e-05</internalNodes>
          <leafValues>
            1.7415237426757812e-01 -5.5482125282287598e-01</leafValues></_>
        <_>
          <internalNodes>
            0 -1 13 -3.6294857272878289e-04</internalNodes>
          <leafValues>
            -5.0507235527038574e-01 1.9131536781787872e-01</leafValues></_></weakClassifiers></_>
    <!-- stage 17 -->
    <_>
      <maxWeakCount>18</maxWeakCount>
      <stageThreshold>-7.8872191905975342e-01</stageThreshold>
      <weakClassifiers>
        <_>
          <internalNodes>
            0 -1 60 3.0459258705377579e-03</internalNodes>
          <leafValues>
            4.6489858627319336e-01 -4.4036698341369629e-01</leafValues></_>
        <_>
          <internalNodes>
            0 -1 110 -1.7303443746641278e-04</internalNodes>
          <leafValues>
            -5.2069729566574097e-01 2.4287532269954681e-01</leafValues></_>
        <_>
          <internalNodes>
            0 -1 72 1.2749424576759338e-01</internalNodes>
          <leafValues>
            -7.2237658500671387e-01 1.6322474181652069e-01</leafValues></_>
        <_>
          <internalNodes>
            0 -1 4 7.0477467961609364e-03</internalNodes>
          <leafValues>
            -3.9915955066680908e-01 2.8829461336135864e-01</leafValues></_>
        <_>
          <internalNodes>
            0 -1 143 1.3202205300331116e-02</internalNodes>
          <leafValues>
            -3.0952769517898560e-01 4.2455574870109558e-01</leafValues></_>
        <_>
          <internalNodes>
            0 -1 90 -2.2033189889043570e-03</internalNodes>
          <leafValues>
            3.3260905742645264e-01 -3.3379215002059937e-01</leafValues></_>
        <_>
          <internalNodes>
            0 -1 77 1.4440936967730522e-02</internalNodes>
          <leafValues>
            -5.6617742776870728e-01 1.6169686615467072e-01</leafValues></_>
        <_>
          <internalNodes>
            0 -1 179 -2.5579533539712429e-03</internalNodes>
          <leafValues>
            2.2251980006694794e-01 -4.5758497714996338e-01</leafValues></_>
        <_>
          <internalNodes>
            0 -1 152 2.0526943728327751e-02</internalNodes>
          <leafValues>
            -1.9812954962253571e-01 5.5607730150222778e-01</leafValues></_>
        <_>
          <internalNodes>
            0 -1 134 -1.8290705978870392e-02</internalNodes>
          <leafValues>
            4.4200050830841064e-01 -2.0386467874050140e-01</leafValues></_>
        <_>
          <internalNodes>
            0 -1 135 6.7023700103163719e-03</internalNodes>
          <leafValues>
            -1.4696545898914337e-01 7.2709941864013672e-01</leafValues></_>
        <_>
          <internalNodes>
            0 -1 103 -2.1337706129997969e-03</internalNodes>
          <leafValues>
            6.6934442520141602e-01 -1.2584863603115082e-01</leafValues></_>
        <_>
          <internalNodes>
            0 -1 95 -3.6731048021465540e-04</internalNodes>
          <leafValues>
            4.9384835362434387e-01 -1.7961668968200684e-01</leafValues></_>
        <_>
          <internalNodes>
            0 -1 38 2.7159384917467833e-03</internalNodes>
          <leafValues>
            1.3514269888401031e-01 -7.5977855920791626e-01</leafValues></_>
        <_>
          <internalNodes>
            0 -1 24 6.1710749287158251e-04</internalNodes>
          <leafValues>
            1.5291510522365570e-01 -5.4459309577941895e-01</leafValues></_>
        <_>
          <internalNodes>
            0 -1 68 -9.5866777002811432e-02</internalNodes>
          <leafValues>
            5.9297955036163330e-01 -1.6492734849452972e-01</leafValues></_>
        <_>
          <internalNodes>
            0 -1 57 1.5769045567139983e-03</internalNodes>
          <leafValues>
            2.7102848887443542e-01 -3.9367878437042236e-01</leafValues></_>
        <_>
          <internalNodes>
            0 -1 51 5.3221159614622593e-03</internalNodes>
          <leafValues>
            -3.7007552385330200e-01 2.6815924048423767e-01</leafValues></_></weakClassifiers></_></stages>
  <features>
    <_>
      <rects>
        <_>
          0 0 2 26 -1.</_>
        <_>
          0 0 1 13 2.</_>
        <_>
          1 13 1 13 2.</_></rects>
      <tilted>0</tilted></_>
    <_>
      <rects>
        <_>
          0 0 2 22 -1.</_>
        <_>
          1 0 1 22 2.</_></rects>
      <tilted>0</tilted></_>
    <_>
      <rects>
        <_>
          0 0 6 2 -1.</_>
        <_>
          2 0 2 2 3.</_></rects>
      <tilted>0</tilted></_>
    <_>
      <rects>
        <_>
          0 0 8 26 -1.</_>
        <_>
          4 0 4 26 2.</_></rects>
      <tilted>0</tilted></_>
    <_>
      <rects>
        <_>
          0 0 10 10 -1.</_>
        <_>
          5 0 5 10 2.</_></rects>
      <tilted>0</tilted></_>
    <_>
      <rects>
        <_>
          0 0 10 31 -1.</_>
        <_>
          5 0 5 31 2.</_></rects>
      <tilted>0</tilted></_>
    <_>
      <rects>
        <_>
          0 0 18 28 -1.</_>
        <_>
          6 0 6 28 3.</_></rects>
      <tilted>0</tilted></_>
    <_>
      <rects>
        <_>
          0 1 10 1 -1.</_>
        <_>
          5 1 5 1 2.</_></rects>
      <tilted>0</tilted></_>
    <_>
      <rects>
        <_>
          0 3 8 20 -1.</_>
        <_>
          0 3 4 10 2.</_>
        <_>
          4 13 4 10 2.</_></rects>
      <tilted>0</tilted></_>
    <_>
      <rects>
        <_>
          0 3 18 25 -1.</_>
        <_>
          6 3 6 25 3.</_></rects>
      <tilted>0</tilted></_>
    <_>
      <rects>
        <_>
          0 3 18 28 -1.</_>
        <_>
          6 3 6 28 3.</_></rects>
      <tilted>0</tilted></_>
    <_>
      <rects>
        <_>
          0 5 10 23 -1.</_>
        <_>
          5 5 5 23 2.</_></rects>
      <tilted>0</tilted></_>
    <_>
      <rects>
        <_>
          0 6 3 26 -1.</_>
        <_>
          0 19 3 13 2.</_></rects>
      <tilted>0</tilted></_>
    <_>
      <rects>
        <_>
          0 7 4 12 -1.</_>
        <_>
          2 7 2 12 2.</_></rects>
      <tilted>0</tilted></_>
    <_>
      <rects>
        <_>
          0 9 1 16 -1.</_>
        <_>
          0 17 1 8 2.</_></rects>
      <tilted>0</tilted></_>
    <_>
      <rects>
        <_>
          0 11 1 8 -1.</_>
        <_>
          0 15 1 4 2.</_></rects>
      <tilted>0</tilted></_>
    <_>
      <rects>
        <_>
          0 11 1 14 -1.</_>
        <_>
          0 18 1 7 2.</_></rects>
      <tilted>0</tilted></_>
    <_>
      <rects>
        <_>
          0 11 18 17 -1.</_>
        <_>
          6 11 6 17 3.</_></rects>
      <tilted>0</tilted></_>
    <_>
      <rects>
        <_>
          0 11 18 3 -1.</_>
        <_>
          9 11 9 3 2.</_></rects>
      <tilted>0</tilted></_>
    <_>
      <rects>
        <_>
          0 11 15 18 -1.</_>
        <_>
          0 17 15 6 3.</_></rects>
      <tilted>0</tilted></_>
    <_>
      <rects>
        <_>
          0 11 15 21 -1.</_>
        <_>
          0 18 15 7 3.</_></rects>
      <tilted>0</tilted></_>
    <_>
      <rects>
        <_>
          0 12 2 10 -1.</_>
        <_>
          1 12 1 10 2.</_></rects>
      <tilted>0</tilted></_>
    <_>
      <rects>
        <_>
          0 13 3 16 -1.</_>
        <_>
          0 21 3 8 2.</_></rects>
      <tilted>0</tilted></_>
    <_>
      <rects>
        <_>
          0 14 1 18 -1.</_>
        <_>
          0 23 1 9 2.</_></rects>
      <tilted>0</tilted></_>
    <_>
      <rects>
        <_>
          0 15 2 8 -1.</_>
        <_>
          0 19 2 4 2.</_></rects>
      <tilted>0</tilted></_>
    <_>
      <rects>
        <_>
          0 15 8 6 -1.</_>
        <_>
          0 17 8 2 3.</_></rects>
      <tilted>0</tilted></_>
    <_>
      <rects>
        <_>
          0 16 1 16 -1.</_>
        <_>
          0 24 1 8 2.</_></rects>
      <tilted>0</tilted></_>
    <_>
      <rects>
        <_>
          0 16 2 13 -1.</_>
        <_>
          1 16 1 13 2.</_></rects>
      <tilted>0</tilted></_>
    <_>
      <rects>
        <_>
          0 16 3 4 -1.</_>
        <_>
          0 18 3 2 2.</_></rects>
      <tilted>0</tilted></_>
    <_>
      <rects>
        <_>
          0 16 8 7 -1.</_>
        <_>
          4 16 4 7 2.</_></rects>
      <tilted>0</tilted></_>
    <_>
      <rects>
        <_>
          0 17 2 7 -1.</_>
        <_>
          1 17 1 7 2.</_></rects>
      <tilted>0</tilted></_>
    <_>
      <rects>
        <_>
          0 18 8 5 -1.</_>
        <_>
          4 18 4 5 2.</_></rects>
      <tilted>0</tilted></_>
    <_>
      <rects>
        <_>
          0 18 6 3 -1.</_>
        <_>
          0 19 6 1 3.</_></rects>
      <tilted>0</tilted></_>
    <_>
      <rects>
        <_>
          0 20 8 12 -1.</_>
        <_>
          0 20 4 6 2.</_>
        <_>
          4 26 4 6 2.</_></rects>
      <tilted>0</tilted></_>
    <_>
      <rects>
        <_>
          0 21 18 4 -1.</_>
        <_>
          6 21 6 4 3.</_></rects>
      <tilted>0</tilted></_>
    <_>
      <rects>
        <_>
          0 22 10 6 -1.</_>
        <_>
          5 22 5 6 2.</_></rects>
      <tilted>0</tilted></_>
    <_>
      <rects>
        <_>
          0 24 13 8 -1.</_>
        <_>
          0 28 13 4 2.</_></rects>
      <tilted>0</tilted></_>
    <_>
      <rects>
        <_>
          0 28 10 2 -1.</_>
        <_>
          0 29 10 1 2.</_></rects>
      <tilted>0</tilted></_>
    <_>
      <rects>
        <_>
          0 30 13 2 -1.</_>
        <_>
          0 31 13 1 2.</_></rects>
      <tilted>0</tilted></_>
    <_>
      <rects>
        <_>
          0 31 8 1 -1.</_>
        <_>
          4 31 4 1 2.</_></rects>
      <tilted>0</tilted></_>
    <_>
      <rects>
        <_>
          1 8 1 12 -1.</_>
        <_>
          1 14 1 6 2.</_></rects>
      <tilted>0</tilted></_>
    <_>
      <rects>
        <_>
          1 12 15 7 -1.</_>
        <_>
          6 12 5 7 3.</_></rects>
      <tilted>0</tilted></_>
    <_>
      <rects>
        <_>
          1 15 6 8 -1.</_>
        <_>
          4 15 3 8 2.</_></rects>
      <tilted>0</tilted></_>
    <_>
      <rects>
        <_>
          1 16 2 7 -1.</_>
        <_>
          2 16 1 7 2.</_></rects>
      <tilted>0</tilted></_>
    <_>
      <rects>
        <_>
          1 19 2 6 -1.</_>
        <_>
          2 19 1 6 2.</_></rects>
      <tilted>0</tilted></_>
    <_>
      <rects>
        <_>
          1 19 9 1 -1.</_>
        <_>
          4 19 3 1 3.</_></rects>
      <tilted>0</tilted></_>
    <_>
      <rects>
        <_>
          2 8 1 24 -1.</_>
        <_>
          2 20 1 12 2.</_></rects>
      <tilted>0</tilted></_>
    <_>
      <rects>
        <_>
          2 9 6 20 -1.</_>
        <_>
          5 9 3 20 2.</_></rects>
      <tilted>0</tilted></_>
    <_>
      <rects>
        <_>
          2 13 4 8 -1.</_>
        <_>
          2 13 2 4 2.</_>
        <_>
          4 17 2 4 2.</_></rects>
      <tilted>0</tilted></_>
    <_>
      <rects>
        <_>
          2 15 5 9 -1.</_>
        <_>
          2 18 5 3 3.</_></rects>
      <tilted>0</tilted></_>
    <_>
      <rects>
        <_>
          2 16 5 6 -1.</_>
        <_>
          2 18 5 2 3.</_></rects>
      <tilted>0</tilted></_>
    <_>
      <rects>
        <_>
          2 17 4 6 -1.</_>
        <_>
          2 19 4 2 3.</_></rects>
      <tilted>0</tilted></_>
    <_>
      <rects>
        <_>
          2 18 4 3 -1.</_>
        <_>
          4 18 2 3 2.</_></rects>
      <tilted>0</tilted></_>
    <_>
      <rects>
        <_>
          2 18 9 3 -1.</_>
        <_>
          5 18 3 3 3.</_></rects>
      <tilted>0</tilted></_>
    <_>
      <rects>
        <_>
          2 19 4 2 -1.</_>
        <_>
          4 19 2 2 2.</_></rects>
      <tilted>0</tilted></_>
    <_>
      <rects>
        <_>
          2 19 6 2 -1.</_>
        <_>
          4 19 2 2 3.</_></rects>
      <tilted>0</tilted></_>
    <_>
      <rects>
        <_>
          2 20 4 4 -1.</_>
        <_>
          2 22 4 2 2.</_></rects>
      <tilted>0</tilted></_>
    <_>
      <rects>
        <_>
          2 22 2 9 -1.</_>
        <_>
          3 22 1 9 2.</_></rects>
      <tilted>0</tilted></_>
    <_>
      <rects>
        <_>
          2 22 5 2 -1.</_>
        <_>
          2 23 5 1 2.</_></rects>
      <tilted>0</tilted></_>
    <_>
      <rects>
        <_>
          2 22 12 10 -1.</_>
        <_>
          2 27 12 5 2.</_></rects>
      <tilted>0</tilted></_>
    <_>
      <rects>
        <_>
          2 24 14 2 -1.</_>
        <_>
          2 24 7 1 2.</_>
        <_>
          9 25 7 1 2.</_></rects>
      <tilted>0</tilted></_>
    <_>
      <rects>
        <_>
          3 0 12 4 -1.</_>
        <_>
          7 0 4 4 3.</_></rects>
      <tilted>0</tilted></_>
    <_>
      <rects>
        <_>
          3 9 10 4 -1.</_>
        <_>
          3 11 10 2 2.</_></rects>
      <tilted>0</tilted></_>
    <_>
      <rects>
        <_>
          3 13 6 15 -1.</_>
        <_>
          3 18 6 5 3.</_></rects>
      <tilted>0</tilted></_>
    <_>
      <rects>
        <_>
          3 14 4 18 -1.</_>
        <_>
          5 14 2 18 2.</_></rects>
      <tilted>0</tilted></_>
    <_>
      <rects>
        <_>
          3 15 4 9 -1.</_>
        <_>
          3 18 4 3 3.</_></rects>
      <tilted>0</tilted></_>
    <_>
      <rects>
        <_>
          3 16 13 16 -1.</_>
        <_>
          3 24 13 8 2.</_></rects>
      <tilted>0</tilted></_>
    <_>
      <rects>
        <_>
          3 18 4 1 -1.</_>
        <_>
          5 18 2 1 2.</_></rects>
      <tilted>0</tilted></_>
    <_>
      <rects>
        <_>
          3 20 14 10 -1.</_>
        <_>
          10 20 7 10 2.</_></rects>
      <tilted>0</tilted></_>
    <_>
      <rects>
        <_>
          3 22 4 2 -1.</_>
        <_>
          3 23 4 1 2.</_></rects>
      <tilted>0</tilted></_>
    <_>
      <rects>
        <_>
          3 24 4 2 -1.</_>
        <_>
          3 25 4 1 2.</_></rects>
      <tilted>0</tilted></_>
    <_>
      <rects>
        <_>
          3 24 14 1 -1.</_>
        <_>
          10 24 7 1 2.</_></rects>
      <tilted>0</tilted></_>
    <_>
      <rects>
        <_>
          4 1 8 24 -1.</_>
        <_>
          4 13 8 12 2.</_></rects>
      <tilted>0</tilted></_>
    <_>
      <rects>
        <_>
          4 8 11 24 -1.</_>
        <_>
          4 16 11 8 3.</_></rects>
      <tilted>0</tilted></_>
    <_>
      <rects>
        <_>
          4 10 11 10 -1.</_>
        <_>
          4 15 11 5 2.</_></rects>
      <tilted>0</tilted></_>
    <_>
      <rects>
        <_>
          4 11 10 21 -1.</_>
        <_>
          4 18 10 7 3.</_></rects>
      <tilted>0</tilted></_>
    <_>
      <rects>
        <_>
          4 11 11 21 -1.</_>
        <_>
          4 18 11 7 3.</_></rects>
      <tilted>0</tilted></_>
    <_>
      <rects>
        <_>
          4 12 12 7 -1.</_>
        <_>
          8 12 4 7 3.</_></rects>
      <tilted>0</tilted></_>
    <_>
      <rects>
        <_>
          4 15 4 16 -1.</_>
        <_>
          4 15 2 8 2.</_>
        <_>
          6 23 2 8 2.</_></rects>
      <tilted>0</tilted></_>
    <_>
      <rects>
        <_>
          4 15 3 9 -1.</_>
        <_>
          4 18 3 3 3.</_></rects>
      <tilted>0</tilted></_>
    <_>
      <rects>
        <_>
          4 15 11 16 -1.</_>
        <_>
          4 23 11 8 2.</_></rects>
      <tilted>0</tilted></_>
    <_>
      <rects>
        <_>
          4 16 2 6 -1.</_>
        <_>
          4 18 2 2 3.</_></rects>
      <tilted>0</tilted></_>
    <_>
      <rects>
        <_>
          4 26 11 6 -1.</_>
        <_>
          4 29 11 3 2.</_></rects>
      <tilted>0</tilted></_>
    <_>
      <rects>
        <_>
          5 0 10 28 -1.</_>
        <_>
          5 14 10 14 2.</_></rects>
      <tilted>0</tilted></_>
    <_>
      <rects>
        <_>
          5 0 13 26 -1.</_>
        <_>
          5 13 13 13 2.</_></rects>
      <tilted>0</tilted></_>
    <_>
      <rects>
        <_>
          5 1 4 4 -1.</_>
        <_>
          5 1 2 2 2.</_>
        <_>
          7 3 2 2 2.</_></rects>
      <tilted>0</tilted></_>
    <_>
      <rects>
        <_>
          5 10 9 21 -1.</_>
        <_>
          5 17 9 7 3.</_></rects>
      <tilted>0</tilted></_>
    <_>
      <rects>
        <_>
          5 10 10 21 -1.</_>
        <_>
          5 17 10 7 3.</_></rects>
      <tilted>0</tilted></_>
    <_>
      <rects>
        <_>
          5 11 10 9 -1.</_>
        <_>
          5 14 10 3 3.</_></rects>
      <tilted>0</tilted></_>
    <_>
      <rects>
        <_>
          5 17 9 8 -1.</_>
        <_>
          8 17 3 8 3.</_></rects>
      <tilted>0</tilted></_>
    <_>
      <rects>
        <_>
          5 18 9 2 -1.</_>
        <_>
          8 18 3 2 3.</_></rects>
      <tilted>0</tilted></_>
    <_>
      <rects>
        <_>
          5 21 9 11 -1.</_>
        <_>
          8 21 3 11 3.</_></rects>
      <tilted>0</tilted></_>
    <_>
      <rects>
        <_>
          5 23 3 2 -1.</_>
        <_>
          5 24 3 1 2.</_></rects>
      <tilted>0</tilted></_>
    <_>
      <rects>
        <_>
          5 25 7 3 -1.</_>
        <_>
          5 26 7 1 3.</_></rects>
      <tilted>0</tilted></_>
    <_>
      <rects>
        <_>
          6 0 9 26 -1.</_>
        <_>
          6 13 9 13 2.</_></rects>
      <tilted>0</tilted></_>
    <_>
      <rects>
        <_>
          6 2 3 1 -1.</_>
        <_>
          7 2 1 1 3.</_></rects>
      <tilted>0</tilted></_>
    <_>
      <rects>
        <_>
          6 15 7 4 -1.</_>
        <_>
          6 17 7 2 2.</_></rects>
      <tilted>0</tilted></_>
    <_>
      <rects>
        <_>
          6 18 4 1 -1.</_>
        <_>
          8 18 2 1 2.</_></rects>
      <tilted>0</tilted></_>
    <_>
      <rects>
        <_>
          6 19 4 3 -1.</_>
        <_>
          8 19 2 3 2.</_></rects>
      <tilted>0</tilted></_>
    <_>
      <rects>
        <_>
          6 22 6 8 -1.</_>
        <_>
          8 22 2 8 3.</_></rects>
      <tilted>0</tilted></_>
    <_>
      <rects>
        <_>
          6 23 6 8 -1.</_>
        <_>
          8 23 2 8 3.</_></rects>
      <tilted>0</tilted></_>
    <_>
      <rects>
        <_>
          6 28 6 3 -1.</_>
        <_>
          6 29 6 1 3.</_></rects>
      <tilted>0</tilted></_>
    <_>
      <rects>
        <_>
          7 0 5 2 -1.</_>
        <_>
          7 1 5 1 2.</_></rects>
      <tilted>0</tilted></_>
    <_>
      <rects>
        <_>
          7 2 6 1 -1.</_>
        <_>
          9 2 2 1 3.</_></rects>
      <tilted>0</tilted></_>
    <_>
      <rects>
        <_>
          7 15 5 2 -1.</_>
        <_>
          7 16 5 1 2.</_></rects>
      <tilted>0</tilted></_>
    <_>
      <rects>
        <_>
          7 19 3 4 -1.</_>
        <_>
          7 21 3 2 2.</_></rects>
      <tilted>0</tilted></_>
    <_>
      <rects>
        <_>
          7 19 4 4 -1.</_>
        <_>
          7 21 4 2 2.</_></rects>
      <tilted>0</tilted></_>
    <_>
      <rects>
        <_>
          7 21 3 6 -1.</_>
        <_>
          8 21 1 6 3.</_></rects>
      <tilted>0</tilted></_>
    <_>
      <rects>
        <_>
          7 22 6 9 -1.</_>
        <_>
          9 22 2 9 3.</_></rects>
      <tilted>0</tilted></_>
    <_>
      <rects>
        <_>
          7 24 1 2 -1.</_>
        <_>
          7 25 1 1 2.</_></rects>
      <tilted>0</tilted></_>
    <_>
      <rects>
        <_>
          7 24 3 2 -1.</_>
        <_>
          8 24 1 2 3.</_></rects>
      <tilted>0</tilted></_>
    <_>
      <rects>
        <_>
          7 25 3 7 -1.</_>
        <_>
          8 25 1 7 3.</_></rects>
      <tilted>0</tilted></_>
    <_>
      <rects>
        <_>
          8 0 1 2 -1.</_>
        <_>
          8 1 1 1 2.</_></rects>
      <tilted>0</tilted></_>
    <_>
      <rects>
        <_>
          8 0 4 2 -1.</_>
        <_>
          8 1 4 1 2.</_></rects>
      <tilted>0</tilted></_>
    <_>
      <rects>
        <_>
          8 0 6 26 -1.</_>
        <_>
          8 13 6 13 2.</_></rects>
      <tilted>0</tilted></_>
    <_>
      <rects>
        <_>
          8 14 2 18 -1.</_>
        <_>
          8 20 2 6 3.</_></rects>
      <tilted>0</tilted></_>
    <_>
      <rects>
        <_>
          8 17 2 6 -1.</_>
        <_>
          8 19 2 2 3.</_></rects>
      <tilted>0</tilted></_>
    <_>
      <rects>
        <_>
          8 17 9 6 -1.</_>
        <_>
          11 17 3 6 3.</_></rects>
      <tilted>0</tilted></_>
    <_>
      <rects>
        <_>
          8 18 9 1 -1.</_>
        <_>
          11 18 3 1 3.</_></rects>
      <tilted>0</tilted></_>
    <_>
      <rects>
        <_>
          8 18 3 6 -1.</_>
        <_>
          8 21 3 3 2.</_></rects>
      <tilted>0</tilted></_>
    <_>
      <rects>
        <_>
          8 22 3 1 -1.</_>
        <_>
          9 22 1 1 3.</_></rects>
      <tilted>0</tilted></_>
    <_>
      <rects>
        <_>
          8 25 3 5 -1.</_>
        <_>
          9 25 1 5 3.</_></rects>
      <tilted>0</tilted></_>
    <_>
      <rects>
        <_>
          9 0 8 30 -1.</_>
        <_>
          13 0 4 30 2.</_></rects>
      <tilted>0</tilted></_>
    <_>
      <rects>
        <_>
          9 1 1 2 -1.</_>
        <_>
          9 2 1 1 2.</_></rects>
      <tilted>0</tilted></_>
    <_>
      <rects>
        <_>
          9 1 2 3 -1.</_>
        <_>
          9 2 2 1 3.</_></rects>
      <tilted>0</tilted></_>
    <_>
      <rects>
        <_>
          9 2 5 22 -1.</_>
        <_>
          9 13 5 11 2.</_></rects>
      <tilted>0</tilted></_>
    <_>
      <rects>
        <_>
          9 18 4 1 -1.</_>
        <_>
          11 18 2 1 2.</_></rects>
      <tilted>0</tilted></_>
    <_>
      <rects>
        <_>
          9 19 4 1 -1.</_>
        <_>
          11 19 2 1 2.</_></rects>
      <tilted>0</tilted></_>
    <_>
      <rects>
        <_>
          9 19 9 2 -1.</_>
        <_>
          12 19 3 2 3.</_></rects>
      <tilted>0</tilted></_>
    <_>
      <rects>
        <_>
          9 22 3 5 -1.</_>
        <_>
          10 22 1 5 3.</_></rects>
      <tilted>0</tilted></_>
    <_>
      <rects>
        <_>
          9 23 3 3 -1.</_>
        <_>
          10 23 1 3 3.</_></rects>
      <tilted>0</tilted></_>
    <_>
      <rects>
        <_>
          9 24 3 5 -1.</_>
        <_>
          10 24 1 5 3.</_></rects>
      <tilted>0</tilted></_>
    <_>
      <rects>
        <_>
          10 1 8 26 -1.</_>
        <_>
          10 1 4 13 2.</_>
        <_>
          14 14 4 13 2.</_></rects>
      <tilted>0</tilted></_>
    <_>
      <rects>
        <_>
          10 8 4 10 -1.</_>
        <_>
          10 8 2 5 2.</_>
        <_>
          12 13 2 5 2.</_></rects>
      <tilted>0</tilted></_>
    <_>
      <rects>
        <_>
          10 13 6 6 -1.</_>
        <_>
          10 13 3 3 2.</_>
        <_>
          13 16 3 3 2.</_></rects>
      <tilted>0</tilted></_>
    <_>
      <rects>
        <_>
          10 14 6 4 -1.</_>
        <_>
          10 14 3 2 2.</_>
        <_>
          13 16 3 2 2.</_></rects>
      <tilted>0</tilted></_>
    <_>
      <rects>
        <_>
          10 14 8 12 -1.</_>
        <_>
          14 14 4 12 2.</_></rects>
      <tilted>0</tilted></_>
    <_>
      <rects>
        <_>
          10 18 3 12 -1.</_>
        <_>
          11 18 1 12 3.</_></rects>
      <tilted>0</tilted></_>
    <_>
      <rects>
        <_>
          10 18 6 2 -1.</_>
        <_>
          12 18 2 2 3.</_></rects>
      <tilted>0</tilted></_>
    <_>
      <rects>
        <_>
          10 18 6 3 -1.</_>
        <_>
          12 18 2 3 3.</_></rects>
      <tilted>0</tilted></_>
    <_>
      <rects>
        <_>
          10 18 8 14 -1.</_>
        <_>
          10 25 8 7 2.</_></rects>
      <tilted>0</tilted></_>
    <_>
      <rects>
        <_>
          10 22 8 10 -1.</_>
        <_>
          10 22 4 5 2.</_>
        <_>
          14 27 4 5 2.</_></rects>
      <tilted>0</tilted></_>
    <_>
      <rects>
        <_>
          10 25 1 2 -1.</_>
        <_>
          10 26 1 1 2.</_></rects>
      <tilted>0</tilted></_>
    <_>
      <rects>
        <_>
          10 26 8 6 -1.</_>
        <_>
          10 26 4 3 2.</_>
        <_>
          14 29 4 3 2.</_></rects>
      <tilted>0</tilted></_>
    <_>
      <rects>
        <_>
          10 31 8 1 -1.</_>
        <_>
          14 31 4 1 2.</_></rects>
      <tilted>0</tilted></_>
    <_>
      <rects>
        <_>
          11 0 6 27 -1.</_>
        <_>
          14 0 3 27 2.</_></rects>
      <tilted>0</tilted></_>
    <_>
      <rects>
        <_>
          11 9 6 15 -1.</_>
        <_>
          14 9 3 15 2.</_></rects>
      <tilted>0</tilted></_>
    <_>
      <rects>
        <_>
          11 12 5 8 -1.</_>
        <_>
          11 16 5 4 2.</_></rects>
      <tilted>0</tilted></_>
    <_>
      <rects>
        <_>
          11 12 5 15 -1.</_>
        <_>
          11 17 5 5 3.</_></rects>
      <tilted>0</tilted></_>
    <_>
      <rects>
        <_>
          11 13 6 13 -1.</_>
        <_>
          14 13 3 13 2.</_></rects>
      <tilted>0</tilted></_>
    <_>
      <rects>
        <_>
          11 13 6 16 -1.</_>
        <_>
          14 13 3 16 2.</_></rects>
      <tilted>0</tilted></_>
    <_>
      <rects>
        <_>
          11 13 7 12 -1.</_>
        <_>
          11 17 7 4 3.</_></rects>
      <tilted>0</tilted></_>
    <_>
      <rects>
        <_>
          11 18 6 3 -1.</_>
        <_>
          13 18 2 3 3.</_></rects>
      <tilted>0</tilted></_>
    <_>
      <rects>
        <_>
          11 18 4 14 -1.</_>
        <_>
          11 25 4 7 2.</_></rects>
      <tilted>0</tilted></_>
    <_>
      <rects>
        <_>
          11 21 3 8 -1.</_>
        <_>
          12 21 1 8 3.</_></rects>
      <tilted>0</tilted></_>
    <_>
      <rects>
        <_>
          11 24 3 1 -1.</_>
        <_>
          12 24 1 1 3.</_></rects>
      <tilted>0</tilted></_>
    <_>
      <rects>
        <_>
          11 26 6 6 -1.</_>
        <_>
          11 29 6 3 2.</_></rects>
      <tilted>0</tilted></_>
    <_>
      <rects>
        <_>
          12 10 6 10 -1.</_>
        <_>
          15 10 3 10 2.</_></rects>
      <tilted>0</tilted></_>
    <_>
      <rects>
        <_>
          12 13 3 15 -1.</_>
        <_>
          12 18 3 5 3.</_></rects>
      <tilted>0</tilted></_>
    <_>
      <rects>
        <_>
          12 13 5 12 -1.</_>
        <_>
          12 17 5 4 3.</_></rects>
      <tilted>0</tilted></_>
    <_>
      <rects>
        <_>
          12 14 3 13 -1.</_>
        <_>
          13 14 1 13 3.</_></rects>
      <tilted>0</tilted></_>
    <_>
      <rects>
        <_>
          12 14 6 12 -1.</_>
        <_>
          12 18 6 4 3.</_></rects>
      <tilted>0</tilted></_>
    <_>
      <rects>
        <_>
          12 15 2 16 -1.</_>
        <_>
          12 15 1 8 2.</_>
        <_>
          13 23 1 8 2.</_></rects>
      <tilted>0</tilted></_>
    <_>
      <rects>
        <_>
          12 15 6 7 -1.</_>
        <_>
          15 15 3 7 2.</_></rects>
      <tilted>0</tilted></_>
    <_>
      <rects>
        <_>
          12 16 5 6 -1.</_>
        <_>
          12 18 5 2 3.</_></rects>
      <tilted>0</tilted></_>
    <_>
      <rects>
        <_>
          12 18 6 2 -1.</_>
        <_>
          14 18 2 2 3.</_></rects>
      <tilted>0</tilted></_>
    <_>
      <rects>
        <_>
          12 18 6 3 -1.</_>
        <_>
          14 18 2 3 3.</_></rects>
      <tilted>0</tilted></_>
    <_>
      <rects>
        <_>
          12 18 4 4 -1.</_>
        <_>
          14 18 2 4 2.</_></rects>
      <tilted>0</tilted></_>
    <_>
      <rects>
        <_>
          12 18 6 14 -1.</_>
        <_>
          12 18 3 7 2.</_>
        <_>
          15 25 3 7 2.</_></rects>
      <tilted>0</tilted></_>
    <_>
      <rects>
        <_>
          13 14 1 8 -1.</_>
        <_>
          13 18 1 4 2.</_></rects>
      <tilted>0</tilted></_>
    <_>
      <rects>
        <_>
          13 17 4 6 -1.</_>
        <_>
          13 19 4 2 3.</_></rects>
      <tilted>0</tilted></_>
    <_>
      <rects>
        <_>
          13 19 3 1 -1.</_>
        <_>
          14 19 1 1 3.</_></rects>
      <tilted>0</tilted></_>
    <_>
      <rects>
        <_>
          14 11 4 3 -1.</_>
        <_>
          16 11 2 3 2.</_></rects>
      <tilted>0</tilted></_>
    <_>
      <rects>
        <_>
          15 23 2 9 -1.</_>
        <_>
          16 23 1 9 2.</_></rects>
      <tilted>0</tilted></_>
    <_>
      <rects>
        <_>
          16 4 1 28 -1.</_>
        <_>
          16 18 1 14 2.</_></rects>
      <tilted>0</tilted></_>
    <_>
      <rects>
        <_>
          16 4 2 21 -1.</_>
        <_>
          16 11 2 7 3.</_></rects>
      <tilted>0</tilted></_>
    <_>
      <rects>
        <_>
          16 10 1 22 -1.</_>
        <_>
          16 21 1 11 2.</_></rects>
      <tilted>0</tilted></_>
    <_>
      <rects>
        <_>
          16 10 2 22 -1.</_>
        <_>
          16 21 2 11 2.</_></rects>
      <tilted>0</tilted></_>
    <_>
      <rects>
        <_>
          16 11 2 18 -1.</_>
        <_>
          17 11 1 18 2.</_></rects>
      <tilted>0</tilted></_>
    <_>
      <rects>
        <_>
          16 12 2 20 -1.</_>
        <_>
          16 22 2 10 2.</_></rects>
      <tilted>0</tilted></_>
    <_>
      <rects>
        <_>
          16 13 2 15 -1.</_>
        <_>
          17 13 1 15 2.</_></rects>
      <tilted>0</tilted></_>
    <_>
      <rects>
        <_>
          16 20 2 4 -1.</_>
        <_>
          17 20 1 4 2.</_></rects>
      <tilted>0</tilted></_>
    <_>
      <rects>
        <_>
          16 22 2 10 -1.</_>
        <_>
          17 22 1 10 2.</_></rects>
      <tilted>0</tilted></_>
    <_>
      <rects>
        <_>
          17 5 1 12 -1.</_>
        <_>
          17 11 1 6 2.</_></rects>
      <tilted>0</tilted></_>
    <_>
      <rects>
        <_>
          17 7 1 15 -1.</_>
        <_>
          17 12 1 5 3.</_></rects>
      <tilted>0</tilted></_>
    <_>
      <rects>
        <_>
          17 7 1 16 -1.</_>
        <_>
          17 15 1 8 2.</_></rects>
      <tilted>0</tilted></_>
    <_>
      <rects>
        <_>
          17 8 1 15 -1.</_>
        <_>
          17 13 1 5 3.</_></rects>
      <tilted>0</tilted></_>
    <_>
      <rects>
        <_>
          17 8 1 18 -1.</_>
        <_>
          17 17 1 9 2.</_></rects>
      <tilted>0</tilted></_>
    <_>
      <rects>
        <_>
          17 8 1 24 -1.</_>
        <_>
          17 20 1 12 2.</_></rects>
      <tilted>0</tilted></_>
    <_>
      <rects>
        <_>
          17 12 1 8 -1.</_>
        <_>
          17 16 1 4 2.</_></rects>
      <tilted>0</tilted></_>
    <_>
      <rects>
        <_>
          17 16 1 16 -1.</_>
        <_>
          17 24 1 8 2.</_></rects>
      <tilted>0</tilted></_></features></cascade>
</opencv_storage>
