<?xml version="1.0"?>
<opencv_storage>
<cascade>
  <stageType>BOOST</stageType>
  <featureType>HAAR</featureType>
  <height>24</height>
  <width>24</width>
  <stageParams>
    <boostType>GAB</boostType>
    <minHitRate>9.9500000476837158e-01</minHitRate>
    <maxFalseAlarm>5.0000000000000000e-01</maxFalseAlarm>
    <weightTrimRate>9.4999999999999996e-01</weightTrimRate>
    <maxDepth>1</maxDepth>
    <maxWeakCount>100</maxWeakCount></stageParams>
  <featureParams>
    <maxCatCount>0</maxCatCount>
    <featSize>1</featSize>
    <mode>BASIC</mode></featureParams>
  <stageNum>20</stageNum>
  <stages>
    <!-- stage 0 -->
    <_>
      <maxWeakCount>4</maxWeakCount>
      <stageThreshold>-4.9723234772682190e-01</stageThreshold>
      <weakClassifiers>
        <_>
          <internalNodes>
            0 -1 56 4.0121644735336304e-02</internalNodes>
          <leafValues>
            -4.4973546266555786e-01 9.1919189691543579e-01</leafValues></_>
        <_>
          <internalNodes>
            0 -1 45 1.3939559459686279e-02</internalNodes>
          <leafValues>
            -3.9744082093238831e-01 8.2539391517639160e-01</leafValues></_>
        <_>
          <internalNodes>
            0 -1 79 -1.5026456676423550e-03</internalNodes>
          <leafValues>
            7.5958329439163208e-01 -4.4773504137992859e-01</leafValues></_>
        <_>
          <internalNodes>
            0 -1 84 8.2636438310146332e-03</internalNodes>
          <leafValues>
            -4.0963938832283020e-01 8.7889844179153442e-01</leafValues></_></weakClassifiers></_>
    <!-- stage 1 -->
    <_>
      <maxWeakCount>5</maxWeakCount>
      <stageThreshold>-9.5870184898376465e-01</stageThreshold>
      <weakClassifiers>
        <_>
          <internalNodes>
            0 -1 39 1.9542090594768524e-02</internalNodes>
          <leafValues>
            -2.9147982597351074e-01 9.5027625560760498e-01</leafValues></_>
        <_>
          <internalNodes>
            0 -1 65 -2.4542002938687801e-03</internalNodes>
          <leafValues>
            6.6718202829360962e-01 -6.0042703151702881e-01</leafValues></_>
        <_>
          <internalNodes>
            0 -1 47 1.2264212593436241e-02</internalNodes>
          <leafValues>
            -4.1997933387756348e-01 8.2660984992980957e-01</leafValues></_>
        <_>
          <internalNodes>
            0 -1 94 -1.0216349735856056e-02</internalNodes>
          <leafValues>
            6.3391089439392090e-01 -5.9814858436584473e-01</leafValues></_>
        <_>
          <internalNodes>
            0 -1 37 1.2547435238957405e-02</internalNodes>
          <leafValues>
            -3.1627613306045532e-01 9.5612144470214844e-01</leafValues></_></weakClassifiers></_>
    <!-- stage 2 -->
    <_>
      <maxWeakCount>4</maxWeakCount>
      <stageThreshold>-2.2827406227588654e-01</stageThreshold>
      <weakClassifiers>
        <_>
          <internalNodes>
            0 -1 14 1.6616699099540710e-01</internalNodes>
          <leafValues>
            -3.3333334326744080e-01 9.7385621070861816e-01</leafValues></_>
        <_>
          <internalNodes>
            0 -1 44 1.5023769810795784e-02</internalNodes>
          <leafValues>
            -3.8693502545356750e-01 8.1160110235214233e-01</leafValues></_>
        <_>
          <internalNodes>
            0 -1 93 -3.9787743240594864e-02</internalNodes>
          <leafValues>
            7.7606147527694702e-01 -4.4871011376380920e-01</leafValues></_>
        <_>
          <internalNodes>
            0 -1 51 1.4850485324859619e-01</internalNodes>
          <leafValues>
            -2.5783172249794006e-01 9.6205824613571167e-01</leafValues></_></weakClassifiers></_>
    <!-- stage 3 -->
    <_>
      <maxWeakCount>4</maxWeakCount>
      <stageThreshold>-1.9273218512535095e-01</stageThreshold>
      <weakClassifiers>
        <_>
          <internalNodes>
            0 -1 5 3.5450607538223267e-01</internalNodes>
          <leafValues>
            -4.0579709410667419e-01 9.6296298503875732e-01</leafValues></_>
        <_>
          <internalNodes>
            0 -1 89 -5.3741149604320526e-03</internalNodes>
          <leafValues>
            6.4840465784072876e-01 -5.0968843698501587e-01</leafValues></_>
        <_>
          <internalNodes>
            0 -1 114 -3.3927450422197580e-03</internalNodes>
          <leafValues>
            -9.0116971731185913e-01 4.0412020683288574e-01</leafValues></_>
        <_>
          <internalNodes>
            0 -1 28 -1.0934823658317327e-03</internalNodes>
          <leafValues>
            -9.0293008089065552e-01 3.2938179373741150e-01</leafValues></_></weakClassifiers></_>
    <!-- stage 4 -->
    <_>
      <maxWeakCount>5</maxWeakCount>
      <stageThreshold>-1.0729557275772095e+00</stageThreshold>
      <weakClassifiers>
        <_>
          <internalNodes>
            0 -1 80 4.0414533577859402e-03</internalNodes>
          <leafValues>
            -5.3846156597137451e-01 7.9591834545135498e-01</leafValues></_>
        <_>
          <internalNodes>
            0 -1 11 2.7475398778915405e-01</internalNodes>
          <leafValues>
            -4.2504110932350159e-01 8.7311136722564697e-01</leafValues></_>
        <_>
          <internalNodes>
            0 -1 75 -2.8136302717030048e-04</internalNodes>
          <leafValues>
            7.1696835756301880e-01 -4.4072517752647400e-01</leafValues></_>
        <_>
          <internalNodes>
            0 -1 49 3.8004465401172638e-02</internalNodes>
          <leafValues>
            -3.0687069892883301e-01 8.3577066659927368e-01</leafValues></_>
        <_>
          <internalNodes>
            0 -1 91 2.3669937625527382e-02</internalNodes>
          <leafValues>
            -5.1955068111419678e-01 5.5250519514083862e-01</leafValues></_></weakClassifiers></_>
    <!-- stage 5 -->
    <_>
      <maxWeakCount>5</maxWeakCount>
      <stageThreshold>-6.8714767694473267e-01</stageThreshold>
      <weakClassifiers>
        <_>
          <internalNodes>
            0 -1 5 3.5157868266105652e-01</internalNodes>
          <leafValues>
            -4.1007193922996521e-01 9.7515529394149780e-01</leafValues></_>
        <_>
          <internalNodes>
            0 -1 35 1.5488716773688793e-02</internalNodes>
          <leafValues>
            -7.0351505279541016e-01 5.9392446279525757e-01</leafValues></_>
        <_>
          <internalNodes>
            0 -1 85 -3.5080253146588802e-03</internalNodes>
          <leafValues>
            7.2291892766952515e-01 -4.5818471908569336e-01</leafValues></_>
        <_>
          <internalNodes>
            0 -1 61 1.2212705798447132e-02</internalNodes>
          <leafValues>
            -7.2104585170745850e-01 5.7234466075897217e-01</leafValues></_>
        <_>
          <internalNodes>
            0 -1 21 7.2438770439475775e-04</internalNodes>
          <leafValues>
            3.1227937340736389e-01 -8.9506667852401733e-01</leafValues></_></weakClassifiers></_>
    <!-- stage 6 -->
    <_>
      <maxWeakCount>5</maxWeakCount>
      <stageThreshold>-5.2222776412963867e-01</stageThreshold>
      <weakClassifiers>
        <_>
          <internalNodes>
            0 -1 9 3.4113126993179321e-01</internalNodes>
          <leafValues>
            -4.1984733939170837e-01 9.1715973615646362e-01</leafValues></_>
        <_>
          <internalNodes>
            0 -1 68 -8.6644635302945971e-05</internalNodes>
          <leafValues>
            6.3505792617797852e-01 -4.8047748208045959e-01</leafValues></_>
        <_>
          <internalNodes>
            0 -1 18 1.1867305263876915e-02</internalNodes>
          <leafValues>
            3.9788576960563660e-01 -8.3948439359664917e-01</leafValues></_>
        <_>
          <internalNodes>
            0 -1 53 -1.0496903210878372e-02</internalNodes>
          <leafValues>
            8.4330689907073975e-01 -4.2449581623077393e-01</leafValues></_>
        <_>
          <internalNodes>
            0 -1 22 -2.1324697881937027e-03</internalNodes>
          <leafValues>
            5.2183705568313599e-01 -7.1082836389541626e-01</leafValues></_></weakClassifiers></_>
    <!-- stage 7 -->
    <_>
      <maxWeakCount>5</maxWeakCount>
      <stageThreshold>-2.9194459319114685e-01</stageThreshold>
      <weakClassifiers>
        <_>
          <internalNodes>
            0 -1 73 -1.2112011015415192e-01</internalNodes>
          <leafValues>
            9.1616767644882202e-01 -3.9849624037742615e-01</leafValues></_>
        <_>
          <internalNodes>
            0 -1 24 1.3622224796563387e-03</internalNodes>
          <leafValues>
            5.2128893136978149e-01 -7.5852233171463013e-01</leafValues></_>
        <_>
          <internalNodes>
            0 -1 34 4.0671274065971375e-02</internalNodes>
          <leafValues>
            -3.7964034080505371e-01 7.7516436576843262e-01</leafValues></_>
        <_>
          <internalNodes>
            0 -1 97 -1.3597508892416954e-02</internalNodes>
          <leafValues>
            7.7236664295196533e-01 -3.7043598294258118e-01</leafValues></_>
        <_>
          <internalNodes>
            0 -1 112 -2.5643687695264816e-03</internalNodes>
          <leafValues>
            -8.4231621026992798e-01 3.9039993286132812e-01</leafValues></_></weakClassifiers></_>
    <!-- stage 8 -->
    <_>
      <maxWeakCount>5</maxWeakCount>
      <stageThreshold>-1.5625312924385071e-01</stageThreshold>
      <weakClassifiers>
        <_>
          <internalNodes>
            0 -1 41 1.5938207507133484e-01</internalNodes>
          <leafValues>
            -3.3858266472816467e-01 8.2658958435058594e-01</leafValues></_>
        <_>
          <internalNodes>
            0 -1 3 -4.3713375926017761e-03</internalNodes>
          <leafValues>
            -6.3702875375747681e-01 5.1171064376831055e-01</leafValues></_>
        <_>
          <internalNodes>
            0 -1 74 5.6715654209256172e-03</internalNodes>
          <leafValues>
            -3.2089617848396301e-01 8.6233127117156982e-01</leafValues></_>
        <_>
          <internalNodes>
            0 -1 13 1.4070928096771240e-01</internalNodes>
          <leafValues>
            -3.0572551488876343e-01 8.8021802902221680e-01</leafValues></_>
        <_>
          <internalNodes>
            0 -1 110 -1.1281026527285576e-03</internalNodes>
          <leafValues>
            -8.8598680496215820e-01 3.8161122798919678e-01</leafValues></_></weakClassifiers></_>
    <!-- stage 9 -->
    <_>
      <maxWeakCount>5</maxWeakCount>
      <stageThreshold>-6.5052604675292969e-01</stageThreshold>
      <weakClassifiers>
        <_>
          <internalNodes>
            0 -1 25 1.8374468386173248e-01</internalNodes>
          <leafValues>
            -3.5766422748565674e-01 9.1411042213439941e-01</leafValues></_>
        <_>
          <internalNodes>
            0 -1 108 7.0610390976071358e-03</internalNodes>
          <leafValues>
            4.4037565588951111e-01 -1.</leafValues></_>
        <_>
          <internalNodes>
            0 -1 54 -1.2505190446972847e-02</internalNodes>
          <leafValues>
            5.4612678289413452e-01 -5.4602825641632080e-01</leafValues></_>
        <_>
          <internalNodes>
            0 -1 32 3.7990026175975800e-03</internalNodes>
          <leafValues>
            4.3645831942558289e-01 -7.4922215938568115e-01</leafValues></_>
        <_>
          <internalNodes>
            0 -1 77 -6.9541828706860542e-03</internalNodes>
          <leafValues>
            5.9243118762969971e-01 -5.3014212846755981e-01</leafValues></_></weakClassifiers></_>
    <!-- stage 10 -->
    <_>
      <maxWeakCount>8</maxWeakCount>
      <stageThreshold>-8.3987927436828613e-01</stageThreshold>
      <weakClassifiers>
        <_>
          <internalNodes>
            0 -1 40 1.9548094272613525e-01</internalNodes>
          <leafValues>
            -2.5874125957489014e-01 8.7261146306991577e-01</leafValues></_>
        <_>
          <internalNodes>
            0 -1 48 3.8805074989795685e-02</internalNodes>
          <leafValues>
            -2.3234847187995911e-01 8.3290255069732666e-01</leafValues></_>
        <_>
          <internalNodes>
            0 -1 76 4.8336950130760670e-03</internalNodes>
          <leafValues>
            -2.0585098862648010e-01 8.8096570968627930e-01</leafValues></_>
        <_>
          <internalNodes>
            0 -1 12 3.9589893817901611e-01</internalNodes>
          <leafValues>
            -2.0609581470489502e-01 9.1839861869812012e-01</leafValues></_>
        <_>
          <internalNodes>
            0 -1 87 1.8030818551778793e-02</internalNodes>
          <leafValues>
            -3.1207200884819031e-01 7.7015656232833862e-01</leafValues></_>
        <_>
          <internalNodes>
            0 -1 16 5.8334751520305872e-04</internalNodes>
          <leafValues>
            -5.9382516145706177e-01 5.2569764852523804e-01</leafValues></_>
        <_>
          <internalNodes>
            0 -1 23 -1.8006663303822279e-03</internalNodes>
          <leafValues>
            4.9485957622528076e-01 -5.6561475992202759e-01</leafValues></_>
        <_>
          <internalNodes>
            0 -1 42 1.2431092560291290e-02</internalNodes>
          <leafValues>
            -6.0101944208145142e-01 4.1514635086059570e-01</leafValues></_></weakClassifiers></_>
    <!-- stage 11 -->
    <_>
      <maxWeakCount>6</maxWeakCount>
      <stageThreshold>-3.7068668007850647e-01</stageThreshold>
      <weakClassifiers>
        <_>
          <internalNodes>
            0 -1 6 5.5926561355590820e-01</internalNodes>
          <leafValues>
            -2.0000000298023224e-01 9.0344828367233276e-01</leafValues></_>
        <_>
          <internalNodes>
            0 -1 19 1.8365718424320221e-03</internalNodes>
          <leafValues>
            3.9377784729003906e-01 -9.1578119993209839e-01</leafValues></_>
        <_>
          <internalNodes>
            0 -1 99 -3.1528733670711517e-02</internalNodes>
          <leafValues>
            7.8991591930389404e-01 -3.5787919163703918e-01</leafValues></_>
        <_>
          <internalNodes>
            0 -1 57 -6.0666981153190136e-04</internalNodes>
          <leafValues>
            6.6700422763824463e-01 -3.4014496207237244e-01</leafValues></_>
        <_>
          <internalNodes>
            0 -1 116 -1.8949051154777408e-03</internalNodes>
          <leafValues>
            5.0107860565185547e-01 -5.0566887855529785e-01</leafValues></_>
        <_>
          <internalNodes>
            0 -1 95 1.6371428966522217e-02</internalNodes>
          <leafValues>
            -3.6751893162727356e-01 7.1621727943420410e-01</leafValues></_></weakClassifiers></_>
    <!-- stage 12 -->
    <_>
      <maxWeakCount>9</maxWeakCount>
      <stageThreshold>-8.1623917818069458e-01</stageThreshold>
      <weakClassifiers>
        <_>
          <internalNodes>
            0 -1 43 2.2104418277740479e-01</internalNodes>
          <leafValues>
            -1.8367347121238708e-01 8.3006536960601807e-01</leafValues></_>
        <_>
          <internalNodes>
            0 -1 67 -2.6223255554214120e-04</internalNodes>
          <leafValues>
            5.4668331146240234e-01 -4.9361923336982727e-01</leafValues></_>
        <_>
          <internalNodes>
            0 -1 31 4.6364232897758484e-02</internalNodes>
          <leafValues>
            -2.7434709668159485e-01 8.2918357849121094e-01</leafValues></_>
        <_>
          <internalNodes>
            0 -1 36 1.9251544028520584e-02</internalNodes>
          <leafValues>
            -2.6895570755004883e-01 8.1264555454254150e-01</leafValues></_>
        <_>
          <internalNodes>
            0 -1 103 -3.4408469218760729e-03</internalNodes>
          <leafValues>
            -7.6210367679595947e-01 3.4683689475059509e-01</leafValues></_>
        <_>
          <internalNodes>
            0 -1 107 -3.1734695658087730e-03</internalNodes>
          <leafValues>
            -7.6663559675216675e-01 2.8179600834846497e-01</leafValues></_>
        <_>
          <internalNodes>
            0 -1 82 7.1537826443091035e-05</internalNodes>
          <leafValues>
            -5.4577100276947021e-01 4.5452952384948730e-01</leafValues></_>
        <_>
          <internalNodes>
            0 -1 106 2.0488858353928663e-05</internalNodes>
          <leafValues>
            -3.4443965554237366e-01 6.5472799539566040e-01</leafValues></_>
        <_>
          <internalNodes>
            0 -1 71 -3.0581209808588028e-02</internalNodes>
          <leafValues>
            8.0018442869186401e-01 -3.4780475497245789e-01</leafValues></_></weakClassifiers></_>
    <!-- stage 13 -->
    <_>
      <maxWeakCount>5</maxWeakCount>
      <stageThreshold>-1.8459796905517578e-01</stageThreshold>
      <weakClassifiers>
        <_>
          <internalNodes>
            0 -1 92 1.7991854110732675e-04</internalNodes>
          <leafValues>
            -2.5862067937850952e-01 7.0652174949645996e-01</leafValues></_>
        <_>
          <internalNodes>
            0 -1 66 -7.5198709964752197e-03</internalNodes>
          <leafValues>
            5.0465321540832520e-01 -5.9224611520767212e-01</leafValues></_>
        <_>
          <internalNodes>
            0 -1 17 -2.0279474556446075e-03</internalNodes>
          <leafValues>
            -8.4094995260238647e-01 2.8738948702812195e-01</leafValues></_>
        <_>
          <internalNodes>
            0 -1 8 4.9454671144485474e-01</internalNodes>
          <leafValues>
            -3.0029389262199402e-01 9.3790537118911743e-01</leafValues></_>
        <_>
          <internalNodes>
            0 -1 100 5.8673154562711716e-03</internalNodes>
          <leafValues>
            -2.5452902913093567e-01 9.7497433423995972e-01</leafValues></_></weakClassifiers></_>
    <!-- stage 14 -->
    <_>
      <maxWeakCount>7</maxWeakCount>
      <stageThreshold>-7.8171354532241821e-01</stageThreshold>
      <weakClassifiers>
        <_>
          <internalNodes>
            0 -1 26 5.1328408718109131e-01</internalNodes>
          <leafValues>
            -1.1242603510618210e-01 9.0839695930480957e-01</leafValues></_>
        <_>
          <internalNodes>
            0 -1 69 -1.6577336937189102e-03</internalNodes>
          <leafValues>
            -8.5407638549804688e-01 3.3679276704788208e-01</leafValues></_>
        <_>
          <internalNodes>
            0 -1 30 2.0532119378913194e-05</internalNodes>
          <leafValues>
            -4.0038269758224487e-01 4.7677925229072571e-01</leafValues></_>
        <_>
          <internalNodes>
            0 -1 1 -6.9724535569548607e-03</internalNodes>
          <leafValues>
            4.6816307306289673e-01 -4.9577715992927551e-01</leafValues></_>
        <_>
          <internalNodes>
            0 -1 10 -2.0659407600760460e-03</internalNodes>
          <leafValues>
            -7.6509618759155273e-01 2.4507549405097961e-01</leafValues></_>
        <_>
          <internalNodes>
            0 -1 111 8.7437729234807193e-05</internalNodes>
          <leafValues>
            -4.0274211764335632e-01 5.6782621145248413e-01</leafValues></_>
        <_>
          <internalNodes>
            0 -1 20 5.0597419030964375e-03</internalNodes>
          <leafValues>
            2.7467513084411621e-01 -8.0144339799880981e-01</leafValues></_></weakClassifiers></_>
    <!-- stage 15 -->
    <_>
      <maxWeakCount>7</maxWeakCount>
      <stageThreshold>-3.0903986096382141e-01</stageThreshold>
      <weakClassifiers>
        <_>
          <internalNodes>
            0 -1 29 3.8398852944374084e-01</internalNodes>
          <leafValues>
            -2.0312500000000000e-01 7.3255813121795654e-01</leafValues></_>
        <_>
          <internalNodes>
            0 -1 85 -1.7894301563501358e-03</internalNodes>
          <leafValues>
            6.4124399423599243e-01 -3.8141429424285889e-01</leafValues></_>
        <_>
          <internalNodes>
            0 -1 52 1.3152438402175903e-01</internalNodes>
          <leafValues>
            -3.4740751981735229e-01 6.5511780977249146e-01</leafValues></_>
        <_>
          <internalNodes>
            0 -1 59 1.5822658315300941e-03</internalNodes>
          <leafValues>
            -4.7547766566276550e-01 5.1178777217864990e-01</leafValues></_>
        <_>
          <internalNodes>
            0 -1 104 1.9021104890271090e-05</internalNodes>
          <leafValues>
            -4.1480520367622375e-01 5.7513827085494995e-01</leafValues></_>
        <_>
          <internalNodes>
            0 -1 4 -8.4734819829463959e-03</internalNodes>
          <leafValues>
            -7.2354263067245483e-01 3.5632804036140442e-01</leafValues></_>
        <_>
          <internalNodes>
            0 -1 102 1.5752438921481371e-03</internalNodes>
          <leafValues>
            3.1622835993766785e-01 -7.6313477754592896e-01</leafValues></_></weakClassifiers></_>
    <!-- stage 16 -->
    <_>
      <maxWeakCount>8</maxWeakCount>
      <stageThreshold>-9.4426429271697998e-01</stageThreshold>
      <weakClassifiers>
        <_>
          <internalNodes>
            0 -1 46 2.3588165640830994e-03</internalNodes>
          <leafValues>
            -2.4528302252292633e-01 6.4948451519012451e-01</leafValues></_>
        <_>
          <internalNodes>
            0 -1 60 -6.9341897964477539e-02</internalNodes>
          <leafValues>
            5.8156281709671021e-01 -3.3189979195594788e-01</leafValues></_>
        <_>
          <internalNodes>
            0 -1 98 -1.7299175262451172e-02</internalNodes>
          <leafValues>
            7.9710626602172852e-01 -2.2641071677207947e-01</leafValues></_>
        <_>
          <internalNodes>
            0 -1 86 6.0647841542959213e-02</internalNodes>
          <leafValues>
            -2.3997582495212555e-01 9.2947882413864136e-01</leafValues></_>
        <_>
          <internalNodes>
            0 -1 105 7.7998824417591095e-04</internalNodes>
          <leafValues>
            -2.7161371707916260e-01 6.6581618785858154e-01</leafValues></_>
        <_>
          <internalNodes>
            0 -1 78 1.7870266456156969e-03</internalNodes>
          <leafValues>
            3.5096743702888489e-01 -7.0944255590438843e-01</leafValues></_>
        <_>
          <internalNodes>
            0 -1 115 -2.4978751316666603e-03</internalNodes>
          <leafValues>
            -6.4139002561569214e-01 3.3518737554550171e-01</leafValues></_>
        <_>
          <internalNodes>
            0 -1 33 1.2814207002520561e-02</internalNodes>
          <leafValues>
            -3.1523609161376953e-01 7.9952502250671387e-01</leafValues></_></weakClassifiers></_>
    <!-- stage 17 -->
    <_>
      <maxWeakCount>8</maxWeakCount>
      <stageThreshold>-1.9885334372520447e-01</stageThreshold>
      <weakClassifiers>
        <_>
          <internalNodes>
            0 -1 7 3.2495176792144775e-01</internalNodes>
          <leafValues>
            -1.9708029925823212e-01 7.7914112806320190e-01</leafValues></_>
        <_>
          <internalNodes>
            0 -1 88 -4.2586296331137419e-05</internalNodes>
          <leafValues>
            4.6705645322799683e-01 -4.7673282027244568e-01</leafValues></_>
        <_>
          <internalNodes>
            0 -1 55 6.2120715156197548e-03</internalNodes>
          <leafValues>
            -5.6002700328826904e-01 3.5327666997909546e-01</leafValues></_>
        <_>
          <internalNodes>
            0 -1 90 1.4239765703678131e-02</internalNodes>
          <leafValues>
            -2.9665935039520264e-01 7.0622807741165161e-01</leafValues></_>
        <_>
          <internalNodes>
            0 -1 83 -2.9952356591820717e-02</internalNodes>
          <leafValues>
            8.5637676715850830e-01 -2.5417074561119080e-01</leafValues></_>
        <_>
          <internalNodes>
            0 -1 72 -1.7993934452533722e-03</internalNodes>
          <leafValues>
            7.0546519756317139e-01 -2.3737233877182007e-01</leafValues></_>
        <_>
          <internalNodes>
            0 -1 15 -3.4796501859091222e-04</internalNodes>
          <leafValues>
            4.7857424616813660e-01 -4.0445381402969360e-01</leafValues></_>
        <_>
          <internalNodes>
            0 -1 2 9.3683484010398388e-04</internalNodes>
          <leafValues>
            -5.5053257942199707e-01 4.0082567930221558e-01</leafValues></_></weakClassifiers></_>
    <!-- stage 18 -->
    <_>
      <maxWeakCount>7</maxWeakCount>
      <stageThreshold>-3.4800913929939270e-01</stageThreshold>
      <weakClassifiers>
        <_>
          <internalNodes>
            0 -1 70 1.9064524676650763e-03</internalNodes>
          <leafValues>
            -1.8965516984462738e-01 6.6304349899291992e-01</leafValues></_>
        <_>
          <internalNodes>
            0 -1 27 -2.9032693710178137e-03</internalNodes>
          <leafValues>
            -6.6626042127609253e-01 3.4489670395851135e-01</leafValues></_>
        <_>
          <internalNodes>
            0 -1 64 -6.4904959872364998e-03</internalNodes>
          <leafValues>
            9.4178575277328491e-01 -2.2880630195140839e-01</leafValues></_>
        <_>
          <internalNodes>
            0 -1 58 -1.3333777897059917e-03</internalNodes>
          <leafValues>
            6.3258713483810425e-01 -3.4058660268783569e-01</leafValues></_>
        <_>
          <internalNodes>
            0 -1 0 -2.4932841770350933e-03</internalNodes>
          <leafValues>
            -9.5321249961853027e-01 2.8061589598655701e-01</leafValues></_>
        <_>
          <internalNodes>
            0 -1 63 4.9461214803159237e-04</internalNodes>
          <leafValues>
            2.9841271042823792e-01 -6.1074960231781006e-01</leafValues></_>
        <_>
          <internalNodes>
            0 -1 50 4.2406877037137747e-04</internalNodes>
          <leafValues>
            5.5473446846008301e-01 -3.4719479084014893e-01</leafValues></_></weakClassifiers></_>
    <!-- stage 19 -->
    <_>
      <maxWeakCount>7</maxWeakCount>
      <stageThreshold>-4.4995489716529846e-01</stageThreshold>
      <weakClassifiers>
        <_>
          <internalNodes>
            0 -1 38 2.9830913990736008e-02</internalNodes>
          <leafValues>
            -6.8322978913784027e-02 7.9856115579605103e-01</leafValues></_>
        <_>
          <internalNodes>
            0 -1 81 -4.5397020876407623e-03</internalNodes>
          <leafValues>
            5.1493263244628906e-01 -3.2701438665390015e-01</leafValues></_>
        <_>
          <internalNodes>
            0 -1 109 -2.1674856543540955e-03</internalNodes>
          <leafValues>
            -7.6078325510025024e-01 2.3853649199008942e-01</leafValues></_>
        <_>
          <internalNodes>
            0 -1 62 -2.1810224279761314e-03</internalNodes>
          <leafValues>
            4.9230709671974182e-01 -4.4084590673446655e-01</leafValues></_>
        <_>
          <internalNodes>
            0 -1 96 2.4589875712990761e-02</internalNodes>
          <leafValues>
            -2.9707628488540649e-01 7.5712299346923828e-01</leafValues></_>
        <_>
          <internalNodes>
            0 -1 101 -4.7760261222720146e-03</internalNodes>
          <leafValues>
            -6.5727788209915161e-01 3.3560624718666077e-01</leafValues></_>
        <_>
          <internalNodes>
            0 -1 113 3.5230091307312250e-03</internalNodes>
          <leafValues>
            1.6889305412769318e-01 -9.0360069274902344e-01</leafValues></_></weakClassifiers></_></stages>
  <features>
    <_>
      <rects>
        <_>
          0 1 2 12 -1.</_>
        <_>
          1 1 1 12 2.</_></rects>
      <tilted>0</tilted></_>
    <_>
      <rects>
        <_>
          0 6 4 18 -1.</_>
        <_>
          0 15 4 9 2.</_></rects>
      <tilted>0</tilted></_>
    <_>
      <rects>
        <_>
          0 10 11 6 -1.</_>
        <_>
          0 12 11 2 3.</_></rects>
      <tilted>0</tilted></_>
    <_>
      <rects>
        <_>
          0 11 6 12 -1.</_>
        <_>
          2 11 2 12 3.</_></rects>
      <tilted>0</tilted></_>
    <_>
      <rects>
        <_>
          0 11 4 12 -1.</_>
        <_>
          0 15 4 4 3.</_></rects>
      <tilted>0</tilted></_>
    <_>
      <rects>
        <_>
          0 11 24 8 -1.</_>
        <_>
          8 11 8 8 3.</_></rects>
      <tilted>0</tilted></_>
    <_>
      <rects>
        <_>
          0 11 24 11 -1.</_>
        <_>
          8 11 8 11 3.</_></rects>
      <tilted>0</tilted></_>
    <_>
      <rects>
        <_>
          0 12 24 6 -1.</_>
        <_>
          8 12 8 6 3.</_></rects>
      <tilted>0</tilted></_>
    <_>
      <rects>
        <_>
          0 12 24 7 -1.</_>
        <_>
          8 12 8 7 3.</_></rects>
      <tilted>0</tilted></_>
    <_>
      <rects>
        <_>
          0 12 24 9 -1.</_>
        <_>
          8 12 8 9 3.</_></rects>
      <tilted>0</tilted></_>
    <_>
      <rects>
        <_>
          0 13 6 2 -1.</_>
        <_>
          2 13 2 2 3.</_></rects>
      <tilted>0</tilted></_>
    <_>
      <rects>
        <_>
          0 13 24 5 -1.</_>
        <_>
          8 13 8 5 3.</_></rects>
      <tilted>0</tilted></_>
    <_>
      <rects>
        <_>
          0 13 24 6 -1.</_>
        <_>
          8 13 8 6 3.</_></rects>
      <tilted>0</tilted></_>
    <_>
      <rects>
        <_>
          0 16 24 2 -1.</_>
        <_>
          8 16 8 2 3.</_></rects>
      <tilted>0</tilted></_>
    <_>
      <rects>
        <_>
          0 16 24 3 -1.</_>
        <_>
          8 16 8 3 3.</_></rects>
      <tilted>0</tilted></_>
    <_>
      <rects>
        <_>
          0 22 5 2 -1.</_>
        <_>
          0 23 5 1 2.</_></rects>
      <tilted>0</tilted></_>
    <_>
      <rects>
        <_>
          1 0 8 2 -1.</_>
        <_>
          5 0 4 2 2.</_></rects>
      <tilted>0</tilted></_>
    <_>
      <rects>
        <_>
          1 2 3 9 -1.</_>
        <_>
          2 2 1 9 3.</_></rects>
      <tilted>0</tilted></_>
    <_>
      <rects>
        <_>
          1 9 2 15 -1.</_>
        <_>
          1 14 2 5 3.</_></rects>
      <tilted>0</tilted></_>
    <_>
      <rects>
        <_>
          1 11 2 7 -1.</_>
        <_>
          2 11 1 7 2.</_></rects>
      <tilted>0</tilted></_>
    <_>
      <rects>
        <_>
          1 13 16 2 -1.</_>
        <_>
          1 13 8 1 2.</_>
        <_>
          9 14 8 1 2.</_></rects>
      <tilted>0</tilted></_>
    <_>
      <rects>
        <_>
          1 20 3 2 -1.</_>
        <_>
          2 20 1 2 3.</_></rects>
      <tilted>0</tilted></_>
    <_>
      <rects>
        <_>
          1 20 12 3 -1.</_>
        <_>
          5 20 4 3 3.</_></rects>
      <tilted>0</tilted></_>
    <_>
      <rects>
        <_>
          2 1 2 16 -1.</_>
        <_>
          2 9 2 8 2.</_></rects>
      <tilted>0</tilted></_>
    <_>
      <rects>
        <_>
          2 3 4 2 -1.</_>
        <_>
          2 4 4 1 2.</_></rects>
      <tilted>0</tilted></_>
    <_>
      <rects>
        <_>
          2 9 19 15 -1.</_>
        <_>
          2 14 19 5 3.</_></rects>
      <tilted>0</tilted></_>
    <_>
      <rects>
        <_>
          2 11 21 11 -1.</_>
        <_>
          9 11 7 11 3.</_></rects>
      <tilted>0</tilted></_>
    <_>
      <rects>
        <_>
          2 23 9 1 -1.</_>
        <_>
          5 23 3 1 3.</_></rects>
      <tilted>0</tilted></_>
    <_>
      <rects>
        <_>
          3 2 1 6 -1.</_>
        <_>
          3 4 1 2 3.</_></rects>
      <tilted>0</tilted></_>
    <_>
      <rects>
        <_>
          3 2 18 20 -1.</_>
        <_>
          9 2 6 20 3.</_></rects>
      <tilted>0</tilted></_>
    <_>
      <rects>
        <_>
          3 3 2 7 -1.</_>
        <_>
          4 3 1 7 2.</_></rects>
      <tilted>0</tilted></_>
    <_>
      <rects>
        <_>
          3 18 18 1 -1.</_>
        <_>
          9 18 6 1 3.</_></rects>
      <tilted>0</tilted></_>
    <_>
      <rects>
        <_>
          3 22 9 2 -1.</_>
        <_>
          6 22 3 2 3.</_></rects>
      <tilted>0</tilted></_>
    <_>
      <rects>
        <_>
          4 13 9 1 -1.</_>
        <_>
          7 13 3 1 3.</_></rects>
      <tilted>0</tilted></_>
    <_>
      <rects>
        <_>
          4 14 9 4 -1.</_>
        <_>
          7 14 3 4 3.</_></rects>
      <tilted>0</tilted></_>
    <_>
      <rects>
        <_>
          4 19 15 3 -1.</_>
        <_>
          9 19 5 3 3.</_></rects>
      <tilted>0</tilted></_>
    <_>
      <rects>
        <_>
          5 13 6 4 -1.</_>
        <_>
          7 13 2 4 3.</_></rects>
      <tilted>0</tilted></_>
    <_>
      <rects>
        <_>
          5 14 6 2 -1.</_>
        <_>
          7 14 2 2 3.</_></rects>
      <tilted>0</tilted></_>
    <_>
      <rects>
        <_>
          5 16 6 3 -1.</_>
        <_>
          8 16 3 3 2.</_></rects>
      <tilted>0</tilted></_>
    <_>
      <rects>
        <_>
          5 18 15 1 -1.</_>
        <_>
          10 18 5 1 3.</_></rects>
      <tilted>0</tilted></_>
    <_>
      <rects>
        <_>
          6 8 13 15 -1.</_>
        <_>
          6 13 13 5 3.</_></rects>
      <tilted>0</tilted></_>
    <_>
      <rects>
        <_>
          6 8 18 15 -1.</_>
        <_>
          6 13 18 5 3.</_></rects>
      <tilted>0</tilted></_>
    <_>
      <rects>
        <_>
          6 9 4 12 -1.</_>
        <_>
          6 13 4 4 3.</_></rects>
      <tilted>0</tilted></_>
    <_>
      <rects>
        <_>
          6 9 11 15 -1.</_>
        <_>
          6 14 11 5 3.</_></rects>
      <tilted>0</tilted></_>
    <_>
      <rects>
        <_>
          6 11 6 7 -1.</_>
        <_>
          8 11 2 7 3.</_></rects>
      <tilted>0</tilted></_>
    <_>
      <rects>
        <_>
          6 11 4 10 -1.</_>
        <_>
          8 11 2 10 2.</_></rects>
      <tilted>0</tilted></_>
    <_>
      <rects>
        <_>
          6 11 4 6 -1.</_>
        <_>
          6 13 4 2 3.</_></rects>
      <tilted>0</tilted></_>
    <_>
      <rects>
        <_>
          6 13 6 3 -1.</_>
        <_>
          8 13 2 3 3.</_></rects>
      <tilted>0</tilted></_>
    <_>
      <rects>
        <_>
          6 13 6 6 -1.</_>
        <_>
          8 13 2 6 3.</_></rects>
      <tilted>0</tilted></_>
    <_>
      <rects>
        <_>
          6 13 6 8 -1.</_>
        <_>
          8 13 2 8 3.</_></rects>
      <tilted>0</tilted></_>
    <_>
      <rects>
        <_>
          6 17 2 2 -1.</_>
        <_>
          7 17 1 2 2.</_></rects>
      <tilted>0</tilted></_>
    <_>
      <rects>
        <_>
          7 7 9 12 -1.</_>
        <_>
          7 13 9 6 2.</_></rects>
      <tilted>0</tilted></_>
    <_>
      <rects>
        <_>
          7 8 11 10 -1.</_>
        <_>
          7 13 11 5 2.</_></rects>
      <tilted>0</tilted></_>
    <_>
      <rects>
        <_>
          7 11 6 4 -1.</_>
        <_>
          7 11 3 2 2.</_>
        <_>
          10 13 3 2 2.</_></rects>
      <tilted>0</tilted></_>
    <_>
      <rects>
        <_>
          7 19 8 4 -1.</_>
        <_>
          7 21 8 2 2.</_></rects>
      <tilted>0</tilted></_>
    <_>
      <rects>
        <_>
          7 20 9 3 -1.</_>
        <_>
          10 20 3 3 3.</_></rects>
      <tilted>0</tilted></_>
    <_>
      <rects>
        <_>
          8 12 8 12 -1.</_>
        <_>
          8 16 8 4 3.</_></rects>
      <tilted>0</tilted></_>
    <_>
      <rects>
        <_>
          8 14 2 1 -1.</_>
        <_>
          9 14 1 1 2.</_></rects>
      <tilted>0</tilted></_>
    <_>
      <rects>
        <_>
          8 14 2 3 -1.</_>
        <_>
          9 14 1 3 2.</_></rects>
      <tilted>0</tilted></_>
    <_>
      <rects>
        <_>
          8 18 3 5 -1.</_>
        <_>
          9 18 1 5 3.</_></rects>
      <tilted>0</tilted></_>
    <_>
      <rects>
        <_>
          8 18 16 6 -1.</_>
        <_>
          8 21 16 3 2.</_></rects>
      <tilted>0</tilted></_>
    <_>
      <rects>
        <_>
          9 3 7 12 -1.</_>
        <_>
          9 9 7 6 2.</_></rects>
      <tilted>0</tilted></_>
    <_>
      <rects>
        <_>
          9 5 6 12 -1.</_>
        <_>
          11 5 2 12 3.</_></rects>
      <tilted>0</tilted></_>
    <_>
      <rects>
        <_>
          9 6 1 4 -1.</_>
        <_>
          9 8 1 2 2.</_></rects>
      <tilted>0</tilted></_>
    <_>
      <rects>
        <_>
          9 9 1 6 -1.</_>
        <_>
          9 11 1 2 3.</_></rects>
      <tilted>0</tilted></_>
    <_>
      <rects>
        <_>
          9 18 2 6 -1.</_>
        <_>
          9 21 2 3 2.</_></rects>
      <tilted>0</tilted></_>
    <_>
      <rects>
        <_>
          9 20 5 4 -1.</_>
        <_>
          9 22 5 2 2.</_></rects>
      <tilted>0</tilted></_>
    <_>
      <rects>
        <_>
          10 13 2 5 -1.</_>
        <_>
          11 13 1 5 2.</_></rects>
      <tilted>0</tilted></_>
    <_>
      <rects>
        <_>
          10 14 2 1 -1.</_>
        <_>
          11 14 1 1 2.</_></rects>
      <tilted>0</tilted></_>
    <_>
      <rects>
        <_>
          10 20 3 4 -1.</_>
        <_>
          11 20 1 4 3.</_></rects>
      <tilted>0</tilted></_>
    <_>
      <rects>
        <_>
          10 20 6 3 -1.</_>
        <_>
          12 20 2 3 3.</_></rects>
      <tilted>0</tilted></_>
    <_>
      <rects>
        <_>
          10 20 8 4 -1.</_>
        <_>
          10 22 8 2 2.</_></rects>
      <tilted>0</tilted></_>
    <_>
      <rects>
        <_>
          11 2 6 2 -1.</_>
        <_>
          13 2 2 2 3.</_></rects>
      <tilted>0</tilted></_>
    <_>
      <rects>
        <_>
          11 7 10 15 -1.</_>
        <_>
          16 7 5 15 2.</_></rects>
      <tilted>0</tilted></_>
    <_>
      <rects>
        <_>
          11 9 1 6 -1.</_>
        <_>
          11 11 1 2 3.</_></rects>
      <tilted>0</tilted></_>
    <_>
      <rects>
        <_>
          11 12 2 2 -1.</_>
        <_>
          11 13 2 1 2.</_></rects>
      <tilted>0</tilted></_>
    <_>
      <rects>
        <_>
          11 12 6 2 -1.</_>
        <_>
          11 12 3 1 2.</_>
        <_>
          14 13 3 1 2.</_></rects>
      <tilted>0</tilted></_>
    <_>
      <rects>
        <_>
          11 12 3 6 -1.</_>
        <_>
          11 14 3 2 3.</_></rects>
      <tilted>0</tilted></_>
    <_>
      <rects>
        <_>
          11 17 3 3 -1.</_>
        <_>
          12 17 1 3 3.</_></rects>
      <tilted>0</tilted></_>
    <_>
      <rects>
        <_>
          11 20 1 4 -1.</_>
        <_>
          11 22 1 2 2.</_></rects>
      <tilted>0</tilted></_>
    <_>
      <rects>
        <_>
          11 20 10 4 -1.</_>
        <_>
          11 20 5 2 2.</_>
        <_>
          16 22 5 2 2.</_></rects>
      <tilted>0</tilted></_>
    <_>
      <rects>
        <_>
          11 21 12 1 -1.</_>
        <_>
          15 21 4 1 3.</_></rects>
      <tilted>0</tilted></_>
    <_>
      <rects>
        <_>
          12 0 4 2 -1.</_>
        <_>
          12 0 2 1 2.</_>
        <_>
          14 1 2 1 2.</_></rects>
      <tilted>0</tilted></_>
    <_>
      <rects>
        <_>
          12 7 6 10 -1.</_>
        <_>
          12 7 3 5 2.</_>
        <_>
          15 12 3 5 2.</_></rects>
      <tilted>0</tilted></_>
    <_>
      <rects>
        <_>
          12 8 4 8 -1.</_>
        <_>
          12 8 2 4 2.</_>
        <_>
          14 12 2 4 2.</_></rects>
      <tilted>0</tilted></_>
    <_>
      <rects>
        <_>
          12 12 2 6 -1.</_>
        <_>
          12 14 2 2 3.</_></rects>
      <tilted>0</tilted></_>
    <_>
      <rects>
        <_>
          12 13 9 6 -1.</_>
        <_>
          15 13 3 6 3.</_></rects>
      <tilted>0</tilted></_>
    <_>
      <rects>
        <_>
          12 14 9 2 -1.</_>
        <_>
          15 14 3 2 3.</_></rects>
      <tilted>0</tilted></_>
    <_>
      <rects>
        <_>
          12 19 1 2 -1.</_>
        <_>
          12 20 1 1 2.</_></rects>
      <tilted>0</tilted></_>
    <_>
      <rects>
        <_>
          12 19 8 2 -1.</_>
        <_>
          16 19 4 2 2.</_></rects>
      <tilted>0</tilted></_>
    <_>
      <rects>
        <_>
          13 9 4 8 -1.</_>
        <_>
          13 9 2 4 2.</_>
        <_>
          15 13 2 4 2.</_></rects>
      <tilted>0</tilted></_>
    <_>
      <rects>
        <_>
          13 10 4 12 -1.</_>
        <_>
          13 14 4 4 3.</_></rects>
      <tilted>0</tilted></_>
    <_>
      <rects>
        <_>
          13 14 2 2 -1.</_>
        <_>
          14 14 1 2 2.</_></rects>
      <tilted>0</tilted></_>
    <_>
      <rects>
        <_>
          14 4 8 14 -1.</_>
        <_>
          14 4 4 7 2.</_>
        <_>
          18 11 4 7 2.</_></rects>
      <tilted>0</tilted></_>
    <_>
      <rects>
        <_>
          14 5 6 12 -1.</_>
        <_>
          14 5 3 6 2.</_>
        <_>
          17 11 3 6 2.</_></rects>
      <tilted>0</tilted></_>
    <_>
      <rects>
        <_>
          14 10 2 9 -1.</_>
        <_>
          14 13 2 3 3.</_></rects>
      <tilted>0</tilted></_>
    <_>
      <rects>
        <_>
          14 14 6 5 -1.</_>
        <_>
          16 14 2 5 3.</_></rects>
      <tilted>0</tilted></_>
    <_>
      <rects>
        <_>
          14 17 9 2 -1.</_>
        <_>
          17 17 3 2 3.</_></rects>
      <tilted>0</tilted></_>
    <_>
      <rects>
        <_>
          15 1 2 20 -1.</_>
        <_>
          15 1 1 10 2.</_>
        <_>
          16 11 1 10 2.</_></rects>
      <tilted>0</tilted></_>
    <_>
      <rects>
        <_>
          15 2 4 18 -1.</_>
        <_>
          15 2 2 9 2.</_>
        <_>
          17 11 2 9 2.</_></rects>
      <tilted>0</tilted></_>
    <_>
      <rects>
        <_>
          15 9 3 7 -1.</_>
        <_>
          16 9 1 7 3.</_></rects>
      <tilted>0</tilted></_>
    <_>
      <rects>
        <_>
          15 22 9 2 -1.</_>
        <_>
          18 22 3 2 3.</_></rects>
      <tilted>0</tilted></_>
    <_>
      <rects>
        <_>
          16 0 8 1 -1.</_>
        <_>
          20 0 4 1 2.</_></rects>
      <tilted>0</tilted></_>
    <_>
      <rects>
        <_>
          16 15 8 6 -1.</_>
        <_>
          16 15 4 3 2.</_>
        <_>
          20 18 4 3 2.</_></rects>
      <tilted>0</tilted></_>
    <_>
      <rects>
        <_>
          16 21 2 1 -1.</_>
        <_>
          17 21 1 1 2.</_></rects>
      <tilted>0</tilted></_>
    <_>
      <rects>
        <_>
          17 15 4 8 -1.</_>
        <_>
          19 15 2 8 2.</_></rects>
      <tilted>0</tilted></_>
    <_>
      <rects>
        <_>
          17 20 2 1 -1.</_>
        <_>
          18 20 1 1 2.</_></rects>
      <tilted>0</tilted></_>
    <_>
      <rects>
        <_>
          18 5 6 6 -1.</_>
        <_>
          18 5 3 3 2.</_>
        <_>
          21 8 3 3 2.</_></rects>
      <tilted>0</tilted></_>
    <_>
      <rects>
        <_>
          18 14 6 4 -1.</_>
        <_>
          20 14 2 4 3.</_></rects>
      <tilted>0</tilted></_>
    <_>
      <rects>
        <_>
          19 4 2 14 -1.</_>
        <_>
          19 4 1 7 2.</_>
        <_>
          20 11 1 7 2.</_></rects>
      <tilted>0</tilted></_>
    <_>
      <rects>
        <_>
          19 9 2 9 -1.</_>
        <_>
          20 9 1 9 2.</_></rects>
      <tilted>0</tilted></_>
    <_>
      <rects>
        <_>
          19 10 2 10 -1.</_>
        <_>
          19 10 1 5 2.</_>
        <_>
          20 15 1 5 2.</_></rects>
      <tilted>0</tilted></_>
    <_>
      <rects>
        <_>
          20 1 4 6 -1.</_>
        <_>
          20 1 2 3 2.</_>
        <_>
          22 4 2 3 2.</_></rects>
      <tilted>0</tilted></_>
    <_>
      <rects>
        <_>
          20 4 4 5 -1.</_>
        <_>
          22 4 2 5 2.</_></rects>
      <tilted>0</tilted></_>
    <_>
      <rects>
        <_>
          20 7 3 16 -1.</_>
        <_>
          21 7 1 16 3.</_></rects>
      <tilted>0</tilted></_>
    <_>
      <rects>
        <_>
          21 0 3 15 -1.</_>
        <_>
          21 5 3 5 3.</_></rects>
      <tilted>0</tilted></_>
    <_>
      <rects>
        <_>
          22 2 1 22 -1.</_>
        <_>
          22 13 1 11 2.</_></rects>
      <tilted>0</tilted></_></features></cascade>
</opencv_storage>
